%YAML:1.0
opencv_ml_ann_mlp:
   format: 3
   layer_sizes: [ 256, 8, 8, 8, 26 ]
   activation_function: SIGMOID_SYM
   f_param1: 6.6666666666666663e-01
   f_param2: 1.7159000000000000e+00
   min_val: -9.4999999999999996e-01
   max_val: 9.4999999999999996e-01
   min_val1: -9.7999999999999998e-01
   max_val1: 9.7999999999999998e-01
   training_params:
      train_method: BACKPROP
      dw_scale: 1.0000000000000000e-03
      moment_scale: 0.
      term_criteria:
         iterations: 300
   input_scale:
      - 2.0234443800748181e-02
      - -2.8404041250980000e-01
      - 1.6347424287997514e-02
      - -3.2597223442659212e-01
      - 1.8420315062253688e-02
      - -3.0550976878426372e-01
      - 2.1208657462766373e-02
      - -2.8778211086479710e-01
      - 2.1608450335373862e-02
      - -3.0148089665805572e-01
      - 1.4744604277672269e-02
      - -3.9610153552500843e-01
      - 1.0969764885179062e-02
      - -5.4121788486198430e-01
      - 9.8809925967850848e-03
      - -6.5037526329963280e-01
      - 9.4078373391397463e-03
      - -6.9468175949198174e-01
      - 9.4040388745129204e-03
      - -7.0280324717568865e-01
      - 9.6561767777030450e-03
      - -6.8269395958331902e-01
      - 1.0821275335527786e-02
      - -5.8291701318534517e-01
      - 1.2667605248753495e-02
      - -4.8851863145485669e-01
      - 1.7200915340334747e-02
      - -4.0009248515270424e-01
      - 2.1324604642737804e-02
      - -4.0576677452516313e-01
      - 2.3328768712411307e-02
      - -3.7547298120854028e-01
      - 1.7507065780233724e-02
      - -3.0001862727601941e-01
      - 1.4248344533852209e-02
      - -3.8704109659988706e-01
      - 1.4454038107144839e-02
      - -3.8435216788659504e-01
      - 1.5118536899451435e-02
      - -3.8839061011365933e-01
      - 1.1522603865598016e-02
      - -5.2360385036564661e-01
      - 9.2389378222493546e-03
      - -7.5723589328845853e-01
      - 8.4803843648851400e-03
      - -1.0388669450833592e+00
      - 8.4910388311679064e-03
      - -1.1620195436490113e+00
      - 8.5904005192401212e-03
      - -1.1853243864001148e+00
      - 8.6445453978757827e-03
      - -1.1697669265448727e+00
      - 8.7516596625905746e-03
      - -1.0912212831986325e+00
      - 9.1065043939657277e-03
      - -8.8663656598297691e-01
      - 9.6353504083551977e-03
      - -7.2410673753844057e-01
      - 1.1514701171987928e-02
      - -5.7249907700539515e-01
      - 1.4784982685631071e-02
      - -4.9100338869693538e-01
      - 1.7826962970295252e-02
      - -4.3390076381798259e-01
      - 2.0881926502232258e-02
      - -2.9374072959170505e-01
      - 1.4487731535411177e-02
      - -3.9490095395936931e-01
      - 1.2432532184347813e-02
      - -4.7872527909847007e-01
      - 1.0058365808503946e-02
      - -6.3413638582630083e-01
      - 8.6612327198571266e-03
      - -9.4507842037457424e-01
      - 8.6960432484342338e-03
      - -1.2818619442299670e+00
      - 9.1858461012034667e-03
      - -1.5412967744493542e+00
      - 9.4464782192807892e-03
      - -1.6161441998902095e+00
      - 9.6436032784400910e-03
      - -1.6784386614686433e+00
      - 9.3097825775936942e-03
      - -1.5446390081784611e+00
      - 9.0758694668318009e-03
      - -1.3022597387086281e+00
      - 9.1196678090166693e-03
      - -1.0520295010223493e+00
      - 9.3933022559116244e-03
      - -8.2910741305428848e-01
      - 1.0429831089101810e-02
      - -6.7891605414891054e-01
      - 1.2531150754957020e-02
      - -5.7363030030858875e-01
      - 1.4835958003207691e-02
      - -5.0120869361890530e-01
      - 2.2444117551098819e-02
      - -2.8373149072794246e-01
      - 1.3880765703018867e-02
      - -4.3314815599502315e-01
      - 9.8749204099920287e-03
      - -6.2846814895020697e-01
      - 8.7773614469295567e-03
      - -9.6725700909899370e-01
      - 8.8489617352035983e-03
      - -1.2979478850548107e+00
      - 9.4642470804637106e-03
      - -1.6388219318089141e+00
      - 1.0007388714858435e-02
      - -1.8400353608585667e+00
      - 1.0544070408085688e-02
      - -2.0137692877044402e+00
      - 1.0962394213172159e-02
      - -2.0840230244762448e+00
      - 9.9960836027624001e-03
      - -1.7207309815865279e+00
      - 9.6081818893019328e-03
      - -1.5106672115226569e+00
      - 9.0720109528559176e-03
      - -1.1065410080845861e+00
      - 9.3036753404329986e-03
      - -8.9344697698390008e-01
      - 9.8745083372209237e-03
      - -7.6862756641306895e-01
      - 1.1173802874500521e-02
      - -6.4352730747006281e-01
      - 1.2751805767454402e-02
      - -5.5886953895115143e-01
      - 2.2123043066784441e-02
      - -2.9324689404683824e-01
      - 1.4823780828827947e-02
      - -4.2048157704628591e-01
      - 9.5675306411909852e-03
      - -7.3962389391192940e-01
      - 9.0388039134254219e-03
      - -1.3532592397690253e+00
      - 1.0049735770349321e-02
      - -1.8098703302203571e+00
      - 1.0859670168091098e-02
      - -2.1439455862646266e+00
      - 1.4468319371468150e-02
      - -3.1257330063198254e+00
      - 1.4044020007984812e-02
      - -2.9787465106865585e+00
      - 1.2868051870084522e-02
      - -2.6246908141100969e+00
      - 1.0740891689857871e-02
      - -1.9751166639054800e+00
      - 9.7192115522839861e-03
      - -1.5334730714026334e+00
      - 9.1721721526121149e-03
      - -1.2113818792985573e+00
      - 9.8359642448824294e-03
      - -9.3244710691034727e-01
      - 1.0209595151314607e-02
      - -8.0850668675439763e-01
      - 1.1470000309281782e-02
      - -7.0133545216636539e-01
      - 1.3072481707978494e-02
      - -5.9259365850230850e-01
      - 1.8734550905171572e-02
      - -3.1747824437897304e-01
      - 1.3522465056497639e-02
      - -4.5890876143725357e-01
      - 9.1855704528884339e-03
      - -8.7063934462418535e-01
      - 9.8489171206687636e-03
      - -1.7743619948483520e+00
      - 1.1777678429608132e-02
      - -2.4427098139702834e+00
      - 1.4268308705937977e-02
      - -3.1061139010783716e+00
      - 1.5471705074365565e-02
      - -3.4318198464015461e+00
      - 1.4180556533341755e-02
      - -3.0321649729320113e+00
      - 1.1975183113091096e-02
      - -2.3573021755955867e+00
      - 1.0028201962896255e-02
      - -1.6725138568820568e+00
      - 9.7085747643602480e-03
      - -1.4263078637715807e+00
      - 9.4529961429544156e-03
      - -1.1619326207518361e+00
      - 9.8221300506621621e-03
      - -9.6974557066935696e-01
      - 1.0478042749705348e-02
      - -8.4978889799454582e-01
      - 1.1808788004808975e-02
      - -7.1230222071630533e-01
      - 1.5742619536596870e-02
      - -5.8284560246852446e-01
      - 1.8192448219929536e-02
      - -3.3803017371644245e-01
      - 1.2353468116681319e-02
      - -5.1768842735338527e-01
      - 9.0083939558319379e-03
      - -9.7302258040726630e-01
      - 1.1174445338423541e-02
      - -2.2106167069086240e+00
      - 1.3872946339776451e-02
      - -3.0458589763018091e+00
      - 1.5579838192382905e-02
      - -3.4790471931660476e+00
      - 1.6898375745097505e-02
      - -3.7908953419171785e+00
      - 1.4545982396130254e-02
      - -3.1054309794436348e+00
      - 1.1622599546075625e-02
      - -2.2863449774507898e+00
      - 1.0058937898917450e-02
      - -1.6191592004831219e+00
      - 9.9069897208806049e-03
      - -1.3739045826850733e+00
      - 9.9490976047038517e-03
      - -1.2027457104328170e+00
      - 1.0142678825258570e-02
      - -1.0482589209308804e+00
      - 1.0712136788533156e-02
      - -9.7390131678605540e-01
      - 1.3031717831718552e-02
      - -7.2205482946283184e-01
      - 1.6444430671588742e-02
      - -5.7917515894618987e-01
      - 1.8991434443848484e-02
      - -3.5340969107920389e-01
      - 1.1516430514338510e-02
      - -5.5897840895766460e-01
      - 8.9177576441644459e-03
      - -1.0505202043539010e+00
      - 1.1383580808969384e-02
      - -2.2912988753828842e+00
      - 1.4102680654278802e-02
      - -3.0538743950770244e+00
      - 1.6421795137815373e-02
      - -3.6697520230573315e+00
      - 1.5625815414594717e-02
      - -3.3833915758301556e+00
      - 1.3408678906515837e-02
      - -2.7673063902499018e+00
      - 1.1494230597003103e-02
      - -2.1360022130854679e+00
      - 1.0361999721016063e-02
      - -1.6381545015621777e+00
      - 1.0223954503159476e-02
      - -1.4256191173193602e+00
      - 1.0077428828907288e-02
      - -1.3415960637191187e+00
      - 1.0269078055648516e-02
      - -1.2229822631472926e+00
      - 1.0678869021073760e-02
      - -1.0344747966924941e+00
      - 1.2495643489544368e-02
      - -7.3626262851332902e-01
      - 1.8444225652874072e-02
      - -5.8393036179948044e-01
      - 1.7694829162071848e-02
      - -3.7807675377087241e-01
      - 1.1273217269092323e-02
      - -5.9088027095914586e-01
      - 8.8739691973394857e-03
      - -1.1197203428183937e+00
      - 1.1083622679589147e-02
      - -2.1686003287797537e+00
      - 1.5280862851308421e-02
      - -3.3756750141410317e+00
      - 1.6169039072429343e-02
      - -3.5707069728638636e+00
      - 1.5018097812937918e-02
      - -3.2061176847374431e+00
      - 1.3105531901540131e-02
      - -2.6520900675553438e+00
      - 1.1682255797471600e-02
      - -2.2165507238212068e+00
      - 1.0819593114844211e-02
      - -1.7462240498970638e+00
      - 1.0702508490106781e-02
      - -1.5293934761207977e+00
      - 1.0438094953151730e-02
      - -1.4570431630799350e+00
      - 1.0494834830060133e-02
      - -1.2817953771833632e+00
      - 1.0825143822162941e-02
      - -1.0082848245786054e+00
      - 1.3576466693712161e-02
      - -6.5491349170277069e-01
      - 1.9068079657592964e-02
      - -5.4513719536315253e-01
      - 1.8840896892753988e-02
      - -3.8716498778798564e-01
      - 1.0384748587889729e-02
      - -6.5530925222643743e-01
      - 8.8550572873827681e-03
      - -1.1579490896586306e+00
      - 1.0299878850137393e-02
      - -1.9301659385707706e+00
      - 1.4078744671462397e-02
      - -3.0232538045263166e+00
      - 1.5505470356875323e-02
      - -3.3971141986566753e+00
      - 1.5124872455800348e-02
      - -3.2445153798744739e+00
      - 1.3438586975505755e-02
      - -2.7186072618844270e+00
      - 1.2408935336540581e-02
      - -2.3737973630678710e+00
      - 1.1676971024777936e-02
      - -1.9490833590972136e+00
      - 1.1178517411924551e-02
      - -1.6348516266945439e+00
      - 1.0851213171935506e-02
      - -1.5104787084625353e+00
      - 1.0570404701939894e-02
      - -1.1872643904154292e+00
      - 1.1445423079157491e-02
      - -8.4197571372949664e-01
      - 1.5689411064409513e-02
      - -5.5846219851981305e-01
      - 2.4977006195344039e-02
      - -4.9968635930615091e-01
      - 1.6928464868143984e-02
      - -4.1248761761265595e-01
      - 1.0349120887843576e-02
      - -6.5552107281747374e-01
      - 8.9240112903214222e-03
      - -1.1615217224407346e+00
      - 1.0006781155896411e-02
      - -1.8089190333768386e+00
      - 1.3127054965166828e-02
      - -2.7462752005170969e+00
      - 1.3506597856501736e-02
      - -2.8452739667217513e+00
      - 1.4523946352274802e-02
      - -3.1074782547950206e+00
      - 1.3340131594098319e-02
      - -2.7243391694013082e+00
      - 1.2782382064319848e-02
      - -2.4106165613220525e+00
      - 1.1856169412807134e-02
      - -1.9500205570525646e+00
      - 1.1135216513904799e-02
      - -1.6755762685431501e+00
      - 1.0957202871690984e-02
      - -1.3826732640137926e+00
      - 1.0609402326327464e-02
      - -9.9112191755785140e-01
      - 1.2717354419776391e-02
      - -6.8783911083076288e-01
      - 1.9731174808474281e-02
      - -4.9963308575322757e-01
      - 2.7377721615548901e-02
      - -4.8228389225329932e-01
      - 1.7181331278253487e-02
      - -3.9772568857118640e-01
      - 1.0340467465270837e-02
      - -6.7822084792999460e-01
      - 8.9149179260377773e-03
      - -1.1682300528136857e+00
      - 9.5689183924474158e-03
      - -1.6290915490804621e+00
      - 1.2223401676291285e-02
      - -2.4870042213903334e+00
      - 1.4472742502544106e-02
      - -3.1476689712558921e+00
      - 1.3745401667804668e-02
      - -2.8611198429398428e+00
      - 1.3099536747192653e-02
      - -2.6434527697042691e+00
      - 1.1752570834497668e-02
      - -2.1787669959223308e+00
      - 1.1263125537705749e-02
      - -1.8807177573798330e+00
      - 1.0703296726066751e-02
      - -1.5982378241273514e+00
      - 1.0460712466445667e-02
      - -1.1096439605799919e+00
      - 1.1104418111679532e-02
      - -7.9234054104602325e-01
      - 1.5492756692385883e-02
      - -5.5271407277156992e-01
      - 2.6159880696203522e-02
      - -4.7372664516017271e-01
      - 3.5455230854064830e-02
      - -4.7702646664309706e-01
      - 1.7341932413494382e-02
      - -3.8873139600880907e-01
      - 1.0321734790664769e-02
      - -6.9530299653086980e-01
      - 8.9108734516634529e-03
      - -1.0948166240231707e+00
      - 9.4624636888064311e-03
      - -1.5871343808528360e+00
      - 1.1273049658239298e-02
      - -2.1658643662469896e+00
      - 1.3153585162298365e-02
      - -2.7341898487598137e+00
      - 1.2941054677980304e-02
      - -2.6634933239335390e+00
      - 1.2134040130563186e-02
      - -2.3686953514826565e+00
      - 1.1634545349726222e-02
      - -2.1553608321890940e+00
      - 1.0409116590266351e-02
      - -1.7046939545644748e+00
      - 9.9893916145870100e-03
      - -1.3071598512062041e+00
      - 1.0054741521520558e-02
      - -9.2392949199040320e-01
      - 1.1858223956456160e-02
      - -6.5557649608450197e-01
      - 1.9838738733904984e-02
      - -4.6497915046585730e-01
      - 3.0794490740048568e-02
      - -4.5221745710883970e-01
      - 3.6451784630370944e-02
      - -4.6636088860823527e-01
      - 1.7120227638186086e-02
      - -3.8199758506514736e-01
      - 1.0915710270613927e-02
      - -6.4488329072984130e-01
      - 8.9599626393770983e-03
      - -1.0582198498042774e+00
      - 9.2832404639280088e-03
      - -1.4957430967166627e+00
      - 1.0608706519135822e-02
      - -1.9728964308619588e+00
      - 1.2442986790620995e-02
      - -2.5355135378265405e+00
      - 1.1994353151251778e-02
      - -2.3834914537859286e+00
      - 1.0722485518580228e-02
      - -1.9481525738102403e+00
      - 1.0285055797679809e-02
      - -1.7308400047718373e+00
      - 9.8474196565144206e-03
      - -1.4427161652975582e+00
      - 9.6499596695771121e-03
      - -1.0440148990061338e+00
      - 1.0689868445573644e-02
      - -7.3995419589185052e-01
      - 1.4489418031311306e-02
      - -5.1381444456701586e-01
      - 2.7275986767178372e-02
      - -4.4951081705066559e-01
      - 3.5988580217739631e-02
      - -4.7113855601209492e-01
      - 4.3660973109580725e-02
      - -5.1115036200185959e-01
      - 1.6126308266181839e-02
      - -4.1616827620419389e-01
      - 1.0840604301286843e-02
      - -6.2456605718022862e-01
      - 9.1280017210892093e-03
      - -9.5295696656575013e-01
      - 9.0593265561346153e-03
      - -1.2981145089861745e+00
      - 9.6287662936028751e-03
      - -1.5990516988570660e+00
      - 1.0459396241845755e-02
      - -1.9235980957193142e+00
      - 1.0464507292245019e-02
      - -1.8971637072940601e+00
      - 9.7940155261212504e-03
      - -1.6157487885581319e+00
      - 9.6144800856670376e-03
      - -1.4411362608970331e+00
      - 9.4291083416327762e-03
      - -1.1160685696689296e+00
      - 1.0044985079756945e-02
      - -8.6963223288846592e-01
      - 1.1813541030192484e-02
      - -6.1329431097609344e-01
      - 1.7455531765111082e-02
      - -4.4491166268287224e-01
      - 3.3692044447563151e-02
      - -4.4529520571387032e-01
      - 3.4354083839751380e-02
      - -4.7327376624669204e-01
      - 4.3478845256025356e-02
      - -5.1558579146108763e-01
      - 1.6257412331518818e-02
      - -4.1513511793141789e-01
      - 1.0954514982783849e-02
      - -6.1119523407457244e-01
      - 9.3950744918158309e-03
      - -8.5023223899295841e-01
      - 8.9699942268177211e-03
      - -1.0295746769334035e+00
      - 9.1169419525759087e-03
      - -1.2900793130176618e+00
      - 9.2207442580533802e-03
      - -1.4377558854176185e+00
      - 9.2734834737068506e-03
      - -1.3838122247720213e+00
      - 9.1121057667291269e-03
      - -1.2358106722647551e+00
      - 9.4266156168162762e-03
      - -1.0803188489852760e+00
      - 9.8806988380914420e-03
      - -8.8907777694882761e-01
      - 1.1487470137577284e-02
      - -6.8342376496474133e-01
      - 1.4129548279956182e-02
      - -5.1203894633265101e-01
      - 2.4086941511273292e-02
      - -4.4247767965908125e-01
      - 2.8667550009244137e-02
      - -4.5505539569708842e-01
      - 3.8209299049908926e-02
      - -5.8298263070294298e-01
      - 3.5560250708374944e-02
      - -5.3319556243646504e-01
   output_scale:
      - 5.2631578947368418e-01
      - 4.9999999999999994e-01
      - 5.2631578947368418e-01
      - 4.9999999999999994e-01
      - 5.2631578947368418e-01
      - 4.9999999999999994e-01
      - 1.
      - 0.
      - 1.
      - 0.
      - 1.
      - 0.
      - 1.
      - 0.
      - 1.
      - 0.
      - 1.
      - 0.
      - 1.
      - 0.
      - 1.
      - 0.
      - 1.
      - 0.
      - 1.
      - 0.
      - 1.
      - 0.
      - 1.
      - 0.
      - 1.
      - 0.
      - 1.
      - 0.
      - 1.
      - 0.
      - 1.
      - 0.
      - 1.
      - 0.
      - 1.
      - 0.
      - 1.
      - 0.
      - 1.
      - 0.
      - 1.
      - 0.
      - 5.2631578947368418e-01
      - 4.9999999999999994e-01
      - 1.
      - 0.
   inv_output_scale:
      - 1.8999999999999999e+00
      - -9.4999999999999996e-01
      - 1.8999999999999999e+00
      - -9.4999999999999996e-01
      - 1.8999999999999999e+00
      - -9.4999999999999996e-01
      - 1.
      - 0.
      - 1.
      - 0.
      - 1.
      - 0.
      - 1.
      - 0.
      - 1.
      - 0.
      - 1.
      - 0.
      - 1.
      - 0.
      - 1.
      - 0.
      - 1.
      - 0.
      - 1.
      - 0.
      - 1.
      - 0.
      - 1.
      - 0.
      - 1.
      - 0.
      - 1.
      - 0.
      - 1.
      - 0.
      - 1.
      - 0.
      - 1.
      - 0.
      - 1.
      - 0.
      - 1.
      - 0.
      - 1.
      - 0.
      - 1.
      - 0.
      - 1.8999999999999999e+00
      - -9.4999999999999996e-01
      - 1.
      - 0.
   weights:
      -
         - 4.3969713387035064e-02
         - -4.6065230246385659e-03
         - 5.9031322612128255e-02
         - -5.6630152379575291e-02
         - 2.4871716193096700e-02
         - 5.8554845144489456e-02
         - 8.1182702865096393e-03
         - -3.8244657323033629e-02
         - 1.2151817488020097e-01
         - -6.1318764840307622e-03
         - 2.5936612826292893e-01
         - -3.4289137825715403e-02
         - 1.1279062362155666e-01
         - 8.6685931343050242e-03
         - -2.0486133070410634e-01
         - -2.2794679965023260e-01
         - 1.2941269370951633e-01
         - 5.8574394786721183e-02
         - 1.8900375203492503e-01
         - 3.5811987337017344e-04
         - 6.9503168911381405e-02
         - 6.8882269474567617e-02
         - -9.5019545485232629e-02
         - -1.9393935306622168e-01
         - 1.5411168137711387e-01
         - 4.1779386908751123e-03
         - 9.7880422406457543e-02
         - -7.8193482881654217e-02
         - 1.5051379952919017e-01
         - 2.8935340275629551e-03
         - 4.3391871989701278e-02
         - -1.3966363968182538e-01
         - 1.3009450103491091e-01
         - 6.0633940746025579e-02
         - -2.7626281471050663e-02
         - 7.4514218921943057e-02
         - -1.8673625801557719e-01
         - -7.0095351768907715e-02
         - 6.7340599702765125e-02
         - -1.4017501140965927e-01
         - -7.4460108169385086e-02
         - -4.5301164944609590e-03
         - -5.9480508931178608e-02
         - -2.2003705935263587e-02
         - -2.8504820677251026e-02
         - 4.7250493308376988e-02
         - -1.0809955782458142e-01
         - -5.7542610860170491e-02
         - -2.6955659143002051e-02
         - 6.0294667376636496e-02
         - 1.4833809906362613e-01
         - -3.0788381977082224e-02
         - 1.6026572859358823e-01
         - 2.1169782082567756e-02
         - -1.7873678654689784e-01
         - -2.0563158087243724e-01
         - 3.2603687016401615e-02
         - 1.7435395182669222e-01
         - 4.7351383480661521e-02
         - -2.8249839858458969e-02
         - -1.4395417916402489e-01
         - 8.1125843794081831e-02
         - -3.0549008173900932e-01
         - -1.6713440411605998e-01
         - 7.2932521343448201e-03
         - 1.2193885061573057e-01
         - 1.1556484834646781e-01
         - -6.5393298009280790e-03
         - 1.1473560958007568e-02
         - 6.3046754691327743e-03
         - -2.8859216448772584e-01
         - -2.3086463075564209e-01
         - 1.0464267749919745e-01
         - 1.4686028378454863e-01
         - 6.1677089705226430e-02
         - 9.9043480829659660e-03
         - -6.7168769796892049e-03
         - 8.4506020729113673e-02
         - -2.2390787463947723e-01
         - -4.6302875982928676e-02
         - -4.2378039380793764e-02
         - 3.8966483690816088e-02
         - 3.7098253801448357e-02
         - -7.1138663929097540e-02
         - 2.5423620300367311e-01
         - -2.0470572384095852e-02
         - -1.8042912130733524e-01
         - -1.0862698246175501e-01
         - -5.9664996161886343e-02
         - 6.9588794032155149e-02
         - -2.1378439631479904e-01
         - -6.2484086572309194e-02
         - 1.3759500400204397e-01
         - 5.7166720632838543e-02
         - 1.6791856729666893e-01
         - 1.6817947200729186e-01
         - -3.3826801656839343e-02
         - 4.1148061742382239e-02
         - 8.0979841771124023e-02
         - 7.7945810673000623e-03
         - 2.1445767353006159e-01
         - 6.2880838987613541e-02
         - -1.1341743138895373e-01
         - -6.8987063488461620e-02
         - -6.5769375210188677e-02
         - 3.1030603411380569e-02
         - -1.1809365522978496e-01
         - -9.4880343704065347e-03
         - 1.9429754376002140e-01
         - 3.5808451213144306e-02
         - 3.0850601299348577e-03
         - 3.0331387215310514e-03
         - -1.0950269951826103e-01
         - 6.2078853565440094e-03
         - -1.0093399009392720e-01
         - -9.5787734947463141e-04
         - -4.1448065908961324e-03
         - 2.5087220523505330e-02
         - -3.3825481880588724e-02
         - 3.1537717762291001e-02
         - 3.3006190512761310e-02
         - -3.4856664043081402e-02
         - 9.5656185666642565e-02
         - 1.9324307396713789e-02
         - -2.3919647937300423e-01
         - -4.5908656917669828e-02
         - -2.1506204038590482e-02
         - -5.9282854272999730e-02
         - -1.6721630602425982e-03
         - -3.4889231485926112e-02
         - 7.6687796841741138e-02
         - -6.3791165302488545e-02
         - 2.0884558573373051e-02
         - -5.0464635797451288e-03
         - 5.1648004185765505e-02
         - -1.6439436547363251e-01
         - 5.2842528116477168e-02
         - 1.6971860563755438e-03
         - 2.1841373996355018e-01
         - -5.9210099961692443e-02
         - 1.8410807526073564e-01
         - 2.0248612248129662e-02
         - -1.0971649528096360e-01
         - -1.8426575494489833e-01
         - -6.1403618999273823e-02
         - 7.2506782683571663e-03
         - 5.2001155575337590e-02
         - -1.2965616713510436e-01
         - 1.9927461836181831e-01
         - 1.1905996510284250e-01
         - -9.0608381267723200e-03
         - -1.3729341169197294e-02
         - 8.6525711046932019e-02
         - 2.9045088206709715e-02
         - 1.9191722503431591e-01
         - 3.8061058404908372e-02
         - -4.3385532929582471e-02
         - 5.3661703275610401e-02
         - -4.1896925384620261e-02
         - -1.7042638607030533e-01
         - -4.0963438420483909e-02
         - -1.2564680161665143e-02
         - -5.8682321092045027e-02
         - 4.2515914085771794e-02
         - -3.4542108084643537e-02
         - -6.2914571295160510e-02
         - -5.7572945453439321e-02
         - -7.6437904849262064e-02
         - -6.9339616508496668e-02
         - 4.7723238721322968e-02
         - -2.0195782490732250e-01
         - -3.2506939585877984e-03
         - -5.9272920826225685e-02
         - 6.3436024416749226e-02
         - 3.6814050849405165e-02
         - 3.6238163743103090e-02
         - -1.0208270746117687e-01
         - 8.9279051457251901e-02
         - 7.4447369998512133e-02
         - -9.4062950140288620e-02
         - -1.2540648990229331e-02
         - 2.1667552481197949e-02
         - -1.3021652146940713e-01
         - -5.1025940688186139e-02
         - 7.2633281312081591e-02
         - 1.5137309069188890e-01
         - 2.2144340213707187e-01
         - 1.0037921378378961e-01
         - -1.9994320890561121e-01
         - 1.0712978583828131e-02
         - -6.1368646519139358e-01
         - -2.0459951309088334e-01
         - 6.8279882478250800e-03
         - 1.0267020177756822e-01
         - 8.4049513048674016e-02
         - -4.7019685249174166e-02
         - 9.9807659404529417e-02
         - -1.9570659322719876e-02
         - -4.3724137722248660e-02
         - -8.7532379014192696e-02
         - -1.9112718483745756e-02
         - 8.6729643203226944e-02
         - 5.7270377019300678e-03
         - -5.5462196584685583e-02
         - 1.5879412128688500e-01
         - -3.6140714676628057e-02
         - -2.7019528812816085e-01
         - -1.7874532444789948e-01
         - -1.3167399491646820e-01
         - 5.5734353701894661e-02
         - -1.7741611672395236e-01
         - -5.5746350106259737e-02
         - 4.0105260421037028e-02
         - 3.4779600796661717e-02
         - -2.4109179964741559e-01
         - -5.1700733517623533e-02
         - -1.6057025003658015e-01
         - 1.9168931346021191e-02
         - -8.6557039065026306e-02
         - -9.4740455141228419e-02
         - 1.1996148448770153e-01
         - 5.2063833185640888e-02
         - -2.9086362256629145e-01
         - -1.1218872022954654e-01
         - 1.5156017581415590e-02
         - 1.2617446978270752e-01
         - 5.9158447313960083e-02
         - 6.6630359059266231e-03
         - 4.3744186690109113e-02
         - 7.7922169006066647e-02
         - -4.3652013157895586e-01
         - -1.5843189517488163e-01
         - 1.3960579463949066e-01
         - 1.7095993668205037e-01
         - 7.4785510131258837e-02
         - 7.2018443798336704e-02
         - 1.7864408426138098e-01
         - 4.8800612630192551e-02
         - -2.5486146424151968e-01
         - -1.4805146378516895e-01
         - -1.8659212273987952e-01
         - -5.9009296119652575e-02
         - -1.9185863526540001e-01
         - -5.2226828338659166e-02
         - 1.4571520136705224e-01
         - 4.7261300047860076e-02
         - -2.1028333527173051e-01
         - -6.7455527284675756e-02
         - 1.6947586791143079e-02
         - -3.9176352386379740e-03
         - -2.0701918071422951e-02
         - 6.7935849880963739e-02
         - 6.0503133568642141e-02
         - -1.5983525620316501e-02
         - 1.1090576577319060e-01
         - -2.8029076872106814e-02
         - 1.3163637678874543e-01
         - 3.7037729131608896e-02
         - 2.3126400098172786e-01
         - 3.4471083521691238e-02
         - 8.4857525209190710e-02
         - -5.3488531905083259e-03
         - -9.1965783739543349e-03
         - -1.7752678319343970e-01
         - 2.7822642913095336e-01
         - 1.2482084915883739e-01
         - 1.6383218098596317e-01
         - 6.8311502039489786e-03
         - 6.0387005140745194e-02
         - 1.6659892896080308e-01
         - 2.3410831678829525e-01
         - 4.9924923056039100e-02
         - 1.7932463898541665e-01
         - 1.1607693467417690e-01
         - 1.8745176187002432e-01
         - -8.7879913717088965e-03
         - 9.9884819172206554e-02
         - 4.9386591303967942e-02
         - 4.3601050976427476e-02
         - -4.9184018339435642e-02
         - -1.6257786567001723e-02
         - 1.2391655506315847e-02
         - -1.0286048108978176e-01
         - -3.9856620944328236e-02
         - 4.6991746379790728e-02
         - -1.1826404611377808e-02
         - 1.0190789058606334e-01
         - 4.1061122452132531e-02
         - 9.1934554911561508e-02
         - 6.3332103889169378e-02
         - -8.9991944745014471e-02
         - 9.7427666542317035e-02
         - -1.4030600967872178e-01
         - -9.4763266697543702e-02
         - 2.2953586951893293e-01
         - -2.5534222689565468e-03
         - -7.1565528366329220e-02
         - 4.0606339921574260e-02
         - 2.3771881506146952e-02
         - 1.2476317174695002e-02
         - 1.3561589525179968e-02
         - -5.9399030432008219e-02
         - -2.3585916531171641e-01
         - -1.8299269608394220e-01
         - -3.1364084994905519e-02
         - 1.1242994431712251e-01
         - 8.8707190950261840e-03
         - 8.6139939123899570e-02
         - -2.0886587399767417e-01
         - -2.8134026349265446e-02
         - -7.7086268894293500e-02
         - -5.9589876711767980e-04
         - -1.0678462945604679e-01
         - 6.9401814220101915e-02
         - -9.1294517553832680e-02
         - 6.5435897367572229e-02
         - -2.8251872349615254e-01
         - 1.6673898896580511e-02
         - -3.3923163744165963e-01
         - 2.0690722112903487e-02
         - -6.6641606382524636e-03
         - 6.4846282252200016e-02
         - -1.6538224855148287e-01
         - 9.1134170030975223e-02
         - -1.8700611895053215e-01
         - -3.0408873791877743e-02
         - 4.4730218423677205e-03
         - 2.2763942324589420e-01
         - -1.5500300340415776e-01
         - -8.9956555181676980e-03
         - -2.1646818336946955e-02
         - -2.8593907209741695e-02
         - 1.0734220117019083e-01
         - -6.6636894448600117e-02
         - -2.9786649666148185e-01
         - -1.1373666744158159e-01
         - -6.1009555884714628e-02
         - 1.0927192146150504e-01
         - 9.5603686060027004e-02
         - -3.4481409781567363e-03
         - -9.8946594672896085e-02
         - 5.8454437462146382e-02
         - -3.7114525794674419e-01
         - -3.1606259446094229e-02
         - -6.5508752011320906e-02
         - 2.6218371207126511e-02
         - 8.4619135595296741e-02
         - -1.4552535203373976e-02
         - 2.2245426627786791e-01
         - -3.9337702512377642e-02
         - -2.7131783904166312e-01
         - -8.6102867557929230e-02
         - -2.8701300132893803e-02
         - 2.4489581427468196e-02
         - 2.2252953426929283e-02
         - 8.9603444647789084e-03
         - 1.6871849422058999e-01
         - -4.7734853809768461e-02
         - -1.5525220752292077e-01
         - -6.6529783545944354e-02
         - -8.7954340590685257e-02
         - 4.5388782628424940e-02
         - -2.5045032064343775e-01
         - 8.4355622995299692e-03
         - 8.2375649374904936e-02
         - 4.9456459747494554e-02
         - -1.8850591237233852e-01
         - -3.8644428920647294e-03
         - -5.8722617240371575e-02
         - -8.3891951777437159e-03
         - -6.2322803038767437e-02
         - 3.1059888132417772e-02
         - 8.2255899975459873e-02
         - -8.7362422211553041e-03
         - -2.6550742860203896e-01
         - -1.8895097973841779e-01
         - -1.1810576667864912e-01
         - -4.1105337737740964e-02
         - 4.2689149641255780e-02
         - -4.0702186858256800e-02
         - 2.5689950020411195e-01
         - 4.1624361026464433e-02
         - -4.9411146093771986e-02
         - -1.4706402419241946e-01
         - -5.0122220846088819e-02
         - 2.4698965002787471e-02
         - -2.9067348086936354e-02
         - 6.0993352048250623e-03
         - -8.4904464033372928e-03
         - 7.3436072392887436e-02
         - -2.4353834579447739e-01
         - -1.1195919796656648e-01
         - 6.3864300405111429e-02
         - 2.8263438317676155e-02
         - 1.3868961061095739e-01
         - -6.3604104963031580e-02
         - 1.5388173813265468e-01
         - 3.0846765746842114e-02
         - -7.1978509107063354e-02
         - -8.1423460681221027e-02
         - -6.8476078260533438e-02
         - 2.1724159239660711e-02
         - -1.2226910145949291e-02
         - -5.6360589609251513e-02
         - 5.9741815477569730e-02
         - 7.8502924060411400e-02
         - -1.1208347369301261e-01
         - -4.3532634435809764e-02
         - -3.4915245835216741e-02
         - 1.0395571364406334e-01
         - 1.2626887689170613e-01
         - 1.6575204517656063e-02
         - -7.2585266865306003e-02
         - -2.5790347339038441e-02
         - -5.6275450455962106e-02
         - -1.2050904672272028e-01
         - 7.2811980482676841e-02
         - 5.7121997208448523e-02
         - 1.1287161571425236e-01
         - 1.1462739073981658e-01
         - -1.2131136300880818e-01
         - -8.7652267841608109e-02
         - 1.5342417744975440e-01
         - 1.1962548571856241e-01
         - -3.7202013067271181e-02
         - 6.1617254399941167e-02
         - -3.2483105878986601e-01
         - 1.3542826750562081e-01
         - -2.2659054656713912e-01
         - -6.8001360393588686e-02
         - 9.3872499814262975e-02
         - 2.3435322583650306e-01
         - -2.2673700761885252e-01
         - -2.7798050680072465e-02
         - -2.4346312248784444e-01
         - 5.2395531677387440e-02
         - -6.9758578592341428e-02
         - -1.3714082538817869e-02
         - 1.0703221256601534e-02
         - 1.5011744831821550e-01
         - -2.1232282551768281e-01
         - 9.4336840605809813e-05
         - -3.2465002783949914e-01
         - -5.0830147606365330e-04
         - -1.0705621423732320e-01
         - -1.8797166396532269e-02
         - -3.1608525656195416e-02
         - 1.1591617104589734e-01
         - -9.8834751986722619e-03
         - -5.0867695436694884e-03
         - -1.4323099240031198e-01
         - 1.2542141215557526e-01
         - -8.4266127735984714e-02
         - -7.7109065560483997e-02
         - -8.5257328021068363e-02
         - -1.0014678888423459e-02
         - -1.9233029541537341e-03
         - 2.7169755644024955e-02
         - 2.4405379997886906e-02
         - 5.6913474378857210e-03
         - 7.2567323335999481e-02
         - -2.6345257288209096e-02
         - 1.0562616465839453e-01
         - 1.3509505541532391e-01
         - 2.5394380858828398e-02
         - 8.3990135251629724e-02
         - 5.4808836447084466e-02
         - 6.3892438864352002e-02
         - -1.2080442166844235e-01
         - 3.3609054129359599e-02
         - 1.6900277467572673e-02
         - 7.5329894083782364e-02
         - -1.7357799257373092e-02
         - 6.6844137445616111e-02
         - 2.0160710331616666e-01
         - 6.7518347520637264e-03
         - -2.1106859077230500e-01
         - -9.8142637753071606e-03
         - 2.0357303617426770e-02
         - 8.5289246875339828e-02
         - 1.7882528096839000e-02
         - 1.2275972386290699e-02
         - -4.1645348769065463e-02
         - -2.3536901861673527e-02
         - -5.1445224514645761e-02
         - 5.3578711430791104e-06
         - 2.2710620765650250e-01
         - 1.6852828900326389e-01
         - -6.9980396048727661e-02
         - -3.8906334555644385e-02
         - 3.0661726313079415e-03
         - -2.0793416037583747e-02
         - 1.5815893267126538e-01
         - -6.5122370684812414e-02
         - 2.0962160949808858e-01
         - 1.3557483285588184e-01
         - 1.7315999758924783e-02
         - 6.6770898520867178e-02
         - -2.0198850069075719e-01
         - 2.8498835222636718e-02
         - -1.4995308960080267e-01
         - 1.0134107292436972e-01
         - 6.6290737549185713e-02
         - 1.4292222033728214e-01
         - -4.5326110265867206e-02
         - -1.5228909941390681e-01
         - -8.5844446901566479e-02
         - 2.2619069476880048e-02
         - 3.0415016621379853e-01
         - -4.8618594270482728e-02
         - 2.2331036825142991e-01
         - 6.8257398185967363e-02
         - 2.2482680718120294e-02
         - 8.6150608885164383e-03
         - 2.3859194768930041e-03
         - 7.7027149446617788e-02
         - 4.0042610002586826e-02
         - 6.6258019844356731e-04
         - 2.2036616623791383e-01
         - -1.0919339702872796e-01
         - 7.5381953608344113e-02
         - 1.1686793859315507e-01
         - 1.0823041532386816e-01
         - -2.1485822172462109e-02
         - -1.1732932671212726e-02
         - 2.8511115330140044e-02
         - 7.0180568772247778e-02
         - -9.0633408450835853e-02
         - 8.0805486111258026e-02
         - 4.6594485534316887e-02
         - 2.2530828682382667e-01
         - 1.8646621867419153e-02
         - 6.0016529114212340e-02
         - -6.9750228620005256e-03
         - 7.2581574919133446e-02
         - -1.1749972951945162e-02
         - -6.4603212980945790e-02
         - 2.6083838610348496e-02
         - -2.3419484043511036e-02
         - 1.7190789264211210e-02
         - -4.8501054454118092e-02
         - 7.5123352475259938e-03
         - 1.2286634406482438e-01
         - 1.2909077252378057e-01
         - -1.1051315877160156e-01
         - -2.0680305101732382e-02
         - -1.9252665943972430e-01
         - 5.0419972392793014e-02
         - -1.1530334882285673e-01
         - -6.1052359393627582e-02
         - 4.9860273524533164e-02
         - 1.2244719975942962e-01
         - -4.8568923456811852e-02
         - 3.9550354065898082e-02
         - -4.1257576638174364e-04
         - -3.7470086002813624e-03
         - -7.1650036292379343e-02
         - -3.1853836302543667e-02
         - -2.6526993010740407e-02
         - -6.7771368974638285e-03
         - -1.7558144279022279e-02
         - 3.9493797758649009e-02
         - 9.0882373838933023e-02
         - -4.2657220001098270e-02
         - -2.3368133895437636e-02
         - 4.3952826276852597e-02
         - -6.6244920311882144e-02
         - 4.1193979666531030e-02
         - -9.0866646464186879e-02
         - -2.3021985385065006e-02
         - 1.2849078992101839e-01
         - -6.1628255611739471e-02
         - 8.1547709917120528e-02
         - -2.4870133732128388e-02
         - -2.5003881613177953e-01
         - -3.1572719359249081e-02
         - 8.8074914690740608e-02
         - -9.0174358683758823e-03
         - 1.7000481827427447e-01
         - -1.2582097576285781e-03
         - 3.3531460238149381e-02
         - 2.8340137044631970e-02
         - 6.2644832983839216e-02
         - 8.2053272519269943e-02
         - 5.6239059079117595e-02
         - 1.6631569581781566e-02
         - -2.3083581526264003e-02
         - -8.5880042776934354e-02
         - 2.7494138326362235e-04
         - 1.6877498608669161e-02
         - 1.9517004991965847e-01
         - 8.5670850732759304e-02
         - 1.6196689487968727e-01
         - 4.2106985543785190e-02
         - 4.0496836254202934e-01
         - 3.8302745421464383e-02
         - -7.7165596382641768e-02
         - -4.4707689103914636e-02
         - 7.8669295477496806e-02
         - -5.4108782639522866e-02
         - 7.3960156428137608e-02
         - 1.1430070898948912e-02
         - 1.1279217158897793e-01
         - -3.1750034611706113e-02
         - 1.3914262309855574e-02
         - -4.3976003596975241e-03
         - 3.3300583284381974e-01
         - 1.5426480839121048e-01
         - 1.3907293816666846e-01
         - -5.0473553247915226e-03
         - -1.6472398328321047e-02
         - 3.7857293884652560e-02
         - -3.6718331583269399e-03
         - -7.7641723737689239e-02
         - 2.3075431576572011e-01
         - 1.3938645382689488e-01
         - -1.2637550634632644e-01
         - -1.0776692948240099e-01
         - 1.2216642042083959e-02
         - 3.5868447974963240e-02
         - 4.6931518871351101e-02
         - -1.0724224376388791e-01
         - 2.5778493407973134e-02
         - 1.0432471297910847e-01
         - -1.2730201369146707e-01
         - -7.3323328775909039e-02
         - -5.7968183980922530e-02
         - 5.0938304994379770e-02
         - 1.9234419960873928e-02
         - -3.3712607390833413e-02
         - 2.8598046678819100e-01
         - 1.3757879799580744e-01
         - 5.0982171256091897e-02
         - -4.6219879561559256e-02
         - 5.7514681266942352e-04
         - 1.4051204124712985e-01
         - 4.9407423104143915e-02
         - -3.0406954489567519e-03
         - 2.6573664735319075e-01
         - 1.9518662699637196e-01
         - -2.6967199795923237e-03
         - -3.9095054769510695e-02
         - 1.2238462563059548e-01
         - 1.1778186156452451e-02
         - 2.2281432585450390e-02
         - -1.8187633974692398e-02
         - 1.0264688528116891e-01
         - 1.1771277997385100e-01
         - 6.8542845869765338e-03
         - -1.7448139032134560e-02
         - -3.6270596419209378e-02
         - 4.8821148057465104e-02
         - -1.3145516134004048e-01
         - -4.3755154117491549e-02
         - 3.9534460215969514e-01
         - 1.6495340068933986e-01
         - 9.0716367803979694e-02
         - 4.4744821990635925e-02
         - 4.0874480214809904e-02
         - -1.7233349194325093e-02
         - 1.9067856097503812e-02
         - -2.9842129387104829e-02
         - -9.5581840095705597e-02
         - -3.1677060721056159e-02
         - 6.9999026097058419e-03
         - -2.8611977735402905e-02
         - 2.1098125015757116e-01
         - -6.3729456543854049e-02
         - 1.5861995800111942e-02
         - -1.1873308619476840e-02
         - 6.6772726096647889e-02
         - 2.7055073638832222e-02
         - -1.5466916043371031e-02
         - 4.7003760862749058e-02
         - 2.3073491582572692e-01
         - -7.8790979517339606e-03
         - -6.1033333264349197e-03
         - -2.6873244856214822e-02
         - -1.6729851267544205e-01
         - -2.3559307934172928e-02
         - -3.9100351308922011e-02
         - 3.8711805398196381e-02
         - 9.7279066827836602e-02
         - -8.0969446574023760e-02
         - 2.2404602999844148e-01
         - -2.3043729087645317e-02
         - -1.3287320174051517e-01
         - -1.6304337924105711e-01
         - 1.2640294378144587e-02
         - -3.1454223850388131e-02
         - 7.6035199089464864e-02
         - -4.7399251769028816e-02
         - 3.1171949849383578e-02
         - 7.0950123901177189e-03
         - -3.5383696870126741e-02
         - -2.4758081781802232e-02
         - -7.4858034432282242e-02
         - -4.1663187695724413e-02
         - -1.9608518967040284e-01
         - 5.0109657175910472e-04
         - -1.3587867357967148e-01
         - 6.6558283601828527e-02
         - 1.4410199093224949e-01
         - 1.7328935960126637e-01
         - 1.9975374248184649e-01
         - 7.2552836489607753e-02
         - 1.5309105366337772e-01
         - 8.9330800704536830e-04
         - -1.6335888493957690e-01
         - 3.6006709329932440e-02
         - 9.6042840676600266e-02
         - -5.7831889565372720e-03
         - 2.7641984952714865e-01
         - 4.5374272625225656e-02
         - 3.8431639130064021e-01
         - 9.1040263682165695e-02
         - -2.0490697268269201e-01
         - -7.0956101803409943e-02
         - 1.4557638344324464e-01
         - -9.2071066726684817e-02
         - 6.7388101981035772e-02
         - 7.5944332988268484e-02
         - 3.8155399444585051e-03
         - 5.8059731273816225e-03
         - -2.8348050115261691e-01
         - 7.4360912485279582e-02
         - 3.0909669479624446e-01
         - 2.6714190450338937e-01
         - 1.2075147519287217e-01
         - 1.4340294057777845e-02
         - 2.0238249617823245e-01
         - 2.2009936369987070e-02
         - 2.4758179427891429e-02
         - -3.9127874203108322e-02
         - 1.0561280171614872e-01
         - 7.1332018492509955e-03
         - 1.7736918941199279e-02
         - -7.1165233163752104e-02
         - 2.2961927290017731e-01
         - 4.1953717715275757e-02
         - 1.2681560885808735e-01
         - -1.3492424661148786e-01
         - 2.1163758836079041e-01
         - -1.4303985398970105e-02
         - -6.5223824954466977e-02
         - -7.5508680026440331e-02
         - -1.8900513986106392e-02
         - 1.8793134727152844e-01
         - -5.3333619281301876e-02
         - -5.6677331117825053e-02
         - 3.3235019566324869e-01
         - 2.3884942840758325e-01
         - -1.0275889000514908e-01
         - -5.1631249137021031e-02
         - -3.8601779901115449e-02
         - 9.5981010109967416e-02
         - -1.9653730404915612e-01
         - 2.7253307341000517e-02
         - 3.2998466808854782e-01
         - 2.6608665309390300e-01
         - -5.7310074636643671e-02
         - -1.1755254868213699e-01
         - 3.5509301133616569e-02
         - 4.7872934972436075e-02
         - 7.7267813772086982e-02
         - -1.7708956504507892e-02
         - 2.3156981666423310e-01
         - 2.2587312319812033e-01
         - -4.9733137373792133e-02
         - -6.2439876918799946e-03
         - 7.5510560886789369e-02
         - 5.3495166200295340e-02
         - -7.0681773181486010e-02
         - 9.9297344846621428e-03
         - 2.2304726025705729e-01
         - 8.5626963473852027e-02
         - -3.1995422083070893e-02
         - -5.0070401152236550e-02
         - -8.5778173277885394e-02
         - 6.5115420577264022e-02
         - -6.7440227630129520e-03
         - -4.4012931874321069e-03
         - 1.4046797449314355e-01
         - 3.4025216945281156e-02
         - -1.0135284102555243e-01
         - -4.3077041563230438e-02
         - -7.6670355521032449e-02
         - -8.9961033667644824e-02
         - 9.8791100637301288e-02
         - -4.5282779428523788e-02
         - -7.3580808357599545e-02
         - 8.0789053616678860e-02
         - 4.8412813602326674e-02
         - -1.4792728379317679e-04
         - 1.0472045259820660e-01
         - -6.3100247226513834e-02
         - 2.6751790304610775e-02
         - 1.1722902588155986e-02
         - 3.5849277193102318e-02
         - -3.5737258766508052e-02
         - -6.0675791341303298e-02
         - -3.8378783636170567e-02
         - 8.8679267293468408e-02
         - -4.9817391358279020e-02
         - 8.8160776864919105e-02
         - -1.0756952120806727e-03
         - -1.1247334938990072e-01
         - -3.7623714427582007e-02
         - 5.6993172628318968e-02
         - 6.3932398536720864e-02
         - 1.6239667485008526e-02
         - 8.8362597690711897e-04
         - -1.1347819740475791e-01
         - 6.9572359545892540e-02
         - -1.1913822218568081e-01
         - 1.1486798822761883e-01
         - 4.8599818858791236e-02
         - 5.7372059373361664e-02
         - 1.2974314806843518e-01
         - -5.1904708996941051e-02
         - -3.1483842438734663e-03
         - -2.7274241319392655e-03
         - -1.1783208693492946e-01
         - -1.3275142945352680e-01
         - 3.9910493466640939e-02
         - 8.1794342438269524e-02
         - 1.8728969246879040e-01
         - -6.5883578050233385e-02
         - -7.1115616333404283e-02
         - -3.9438295379039139e-02
         - -2.4483530577206418e-02
         - -6.7133845120888380e-02
         - 1.0188371976863278e-01
         - -2.1811116745941991e-02
         - 2.9191497765299024e-01
         - 2.1460501051748015e-02
         - -2.0555449786996524e-01
         - -3.8742760044290364e-02
         - -5.0109856520796241e-02
         - -5.5481220805180267e-02
         - 2.3529005359405816e-01
         - 1.2018171563436970e-01
         - 2.8207537384699427e-01
         - 7.2946923651567741e-02
         - -3.7913761559436265e-01
         - -1.0485749257773102e-02
         - 2.0189542586384354e-01
         - 1.4631650616497668e-01
         - 1.5436025842600296e-01
         - 2.5594011907522703e-02
         - 1.6127479622164154e-01
         - 3.0158649361275169e-02
         - -2.2893493171418652e-01
         - -1.5147715573302009e-01
         - 2.1775689250291619e-01
         - 1.0513816721570396e-01
         - 4.2470750773436735e-03
         - -1.9981006729590113e-02
         - 1.4974265805177778e-01
         - -3.7359268245234771e-02
         - -1.3485258286705296e-01
         - -2.4408366624741516e-02
         - 1.4392113065544793e-01
         - 6.1410768595922774e-02
         - 1.3225771058718527e-02
         - -2.5585689692696950e-02
         - 6.7776490767651187e-02
         - 7.0675496801441778e-02
         - 8.0440375472621228e-02
         - -5.3223453931902136e-02
         - 5.5071405844722518e-02
         - -7.6247878779332383e-03
         - -6.6919616394121542e-02
         - -6.5873203388413321e-02
         - 6.0535464700876195e-02
         - 3.0390179990389714e-02
         - 7.0858303304186784e-02
         - -3.0765247959232335e-02
         - 2.8529383589522800e-01
         - 7.8794377148814029e-02
         - -2.1122973539101860e-02
         - -2.4140795510619550e-02
         - 2.6977659451134495e-02
         - 9.1384202563953659e-02
         - 2.0605020468605378e-01
         - 2.1765571910133903e-02
         - 1.4283618960160469e-01
         - 2.2282868238977325e-02
         - -2.6872713164798653e-02
         - -1.1965748625262090e-01
         - -1.4198606411241430e-01
         - -1.7835963037401169e-02
         - 3.9466275486515356e-01
         - -4.1495625016686279e-02
         - 2.6628044223800840e-01
         - 1.7044019110653541e-01
         - -7.7767844688037990e-02
         - -5.5782402159881138e-02
         - 4.2066515954672860e-02
         - 7.4178727542115472e-03
         - -2.0159547250341175e-02
         - -5.6316589637199585e-02
         - 1.4169504354962695e-01
         - 1.0464535578025365e-01
         - 4.6768565457224283e-03
         - 4.6308225194377904e-02
         - 1.8702749736063156e-02
         - 6.7537965532607172e-02
         - 7.0003580525266743e-02
         - -5.3388365040819757e-02
         - 1.3533499805537674e-01
         - 1.3491593411686861e-01
         - 3.6930602980083270e-03
         - -9.2591525683407092e-03
         - 1.7579387787723991e-01
         - -5.9897801936574679e-02
         - 5.9700217123515108e-02
         - -8.5923719640927848e-02
         - -1.0073127824078472e-01
         - -4.0669986484144598e-02
         - 1.3741138000505421e-01
         - 5.4874955074974120e-02
         - 1.1717730975399951e-01
         - -9.1676956327188530e-02
         - 1.8013382393268097e-02
         - 4.4489997704930144e-03
         - -1.7957837151131056e-01
         - -7.5557353259404547e-02
         - 6.6619143233305728e-02
         - 5.2912035199148069e-02
         - 8.6720557618318372e-02
         - 1.2541563318219812e-02
         - 2.1700138745654542e-02
         - 4.4596221370562093e-02
         - 3.2666787445215124e-02
         - -5.2197445345565405e-02
         - 2.8629381071665735e-02
         - 5.5258131157984919e-02
         - 1.1380237177408023e-01
         - -7.9496101661448298e-02
         - 1.5250297705715696e-01
         - 6.5488257296026614e-02
         - -9.4549849512884976e-02
         - -9.1677315167685319e-02
         - 3.3802526190999889e-02
         - -4.7095367485480242e-03
         - 4.4772441960083207e-03
         - -7.9827961113796198e-02
         - 2.0098822336791847e-01
         - -1.3197396417052587e-02
         - -8.5033866597148441e-02
         - -3.0047631438653052e-04
         - -2.8577159109847518e-02
         - -3.6298907354725810e-02
         - 5.4392132576048649e-02
         - 3.2700067139831514e-02
         - -1.5536313323687510e-02
         - -7.4876854310682944e-02
         - -3.6279987675080651e-02
         - -6.8238596399711013e-02
         - -2.8424157904197885e-02
         - -4.1185105632025550e-02
         - -8.6696951256392027e-02
         - -2.9860336162987181e-02
         - -3.8092825032831629e-01
         - -5.8136674262111877e-03
         - 1.8503010331260542e-01
         - 2.6258921567301369e-01
         - 1.4403613238592561e-01
         - 3.9241474790697985e-02
         - 2.5560549281412703e-01
         - 4.4502779438085401e-02
         - -3.8236711074883800e-01
         - -1.0239373514230785e-01
         - 1.2865207319932731e-01
         - 6.0640966260464772e-02
         - -7.5660745802626619e-02
         - -6.5092381963417489e-02
         - 4.1140086295396644e-02
         - -7.3064300193649234e-02
         - -1.3176155529692141e-01
         - -1.2485079143076394e-01
         - 1.9559882623254082e-01
         - 1.4546612218366065e-01
         - -6.3230344048495896e-02
         - -5.8285146352294783e-03
         - -4.8420212902781090e-02
         - -5.4370680331537078e-03
         - -3.0357313767605032e-01
         - 2.8041430125983553e-03
         - 9.4753354286282079e-02
         - 2.2473865700575565e-01
         - -3.7353016369814349e-02
         - 6.4132023939235380e-02
         - -1.7371228003487369e-02
         - 5.3515678097288889e-02
         - 6.2501066779858436e-02
         - 1.6172092508220194e-02
         - 1.0578293267637669e-01
         - -1.6993863935515909e-02
         - -1.4013091317047577e-01
         - -1.6903035407522058e-02
         - -1.8545794743827132e-01
         - -4.2725527955363746e-02
         - 1.7011457889218262e-01
         - 2.7784132635539437e-02
         - 1.3480649400482095e-01
         - 5.0341159977911658e-02
         - -1.2061933053380334e-02
         - -9.6943750680990023e-02
         - -1.7469688168223482e-01
         - 5.3509136292739260e-03
         - 3.4672921990733574e-01
         - 4.8251204368253794e-02
         - 1.3917811594785215e-01
         - -1.1883643131249972e-02
         - 1.2613484319804172e-01
         - -2.6658811996058240e-02
         - -2.7540454715198343e-01
         - 5.7436685239280402e-02
         - 1.1967065658280146e-01
         - 7.2545440328335389e-02
         - 3.5042371063105532e-01
         - 1.9878722537913263e-01
         - -1.0738988348279668e-01
         - -5.5685096416508907e-02
         - 6.6604094264989422e-02
         - -3.7363842882191883e-02
         - -9.6920695155886499e-02
         - -5.3968453351516781e-03
         - -4.0346115290525127e-02
         - 1.7235626383122352e-01
         - 6.2752072503531472e-02
         - 9.6897815075738844e-02
         - -3.8004839072800951e-02
         - 1.6739648642774288e-02
         - -1.9286494237546570e-01
         - 2.1751879521157896e-02
         - 1.4531478078294557e-01
         - 2.4632382039375750e-01
         - 4.8681535449245895e-02
         - 2.2429342094585501e-02
         - 1.3137096733024689e-01
         - -6.4363309355111101e-02
         - -5.1332627161361243e-02
         - -1.0020204197091950e-02
         - -2.2462010316683462e-01
         - 5.9340198932557674e-02
         - 8.5057964052444299e-02
         - 1.0554602794859775e-02
         - 5.0432985997215095e-02
         - -5.5944654118794457e-02
         - -1.1759834766450099e-01
         - -5.6194030226043183e-02
         - -1.1326763450328142e-01
         - 1.0756279002456608e-02
         - 8.0101890860517458e-02
         - 2.9696683601558693e-02
         - 9.8866287294226939e-03
         - -9.6098197657971118e-03
         - 1.7039823515530225e-02
         - -4.5249369617209843e-02
         - 3.5602767803342122e-02
         - -1.6268735917874602e-01
         - 8.5888017177205470e-02
         - -7.1960147591301100e-03
         - -8.5428414358883653e-02
         - -4.8381429086337031e-02
         - 2.3879130485394578e-01
         - -1.4920438356297732e-02
         - -1.6681563240994521e-01
         - -2.3768382072007652e-01
         - 6.6164054799261032e-02
         - -6.1246982082235286e-02
         - -1.9151255769659536e-01
         - 1.1361261500771528e-02
         - -6.7124569784909757e-02
         - -9.3265780436389105e-03
         - 1.7717529708038729e-01
         - 1.0057520436653497e-01
         - -1.7301305553770058e-01
         - -4.3139912169822568e-02
         - -8.5585191784580184e-02
         - -6.1176373765428615e-02
         - 4.2142285486050500e-02
         - -4.0386354769227067e-03
         - 5.2268914634286665e-02
         - 4.7020419076114393e-02
         - 1.3418116340188312e-02
         - 2.8923780230571350e-02
         - 1.6622255460594666e-02
         - 3.6969199498096593e-02
         - -2.9062089711574191e-01
         - 6.5908040822775247e-03
         - 6.3764895605802785e-02
         - 1.0012751491832390e-01
         - 1.4639875573912396e-03
         - 1.9594246883090118e-02
         - 2.2184079628903643e-02
         - 1.2339219434753348e-03
         - -2.5669172197664767e-02
         - -7.6480278943613089e-02
         - 1.8456188645268953e-01
         - 1.1657447068735748e-01
         - -8.6952831192379787e-02
         - -5.9900681245228397e-02
         - -1.2253652951308712e-01
         - 4.7839344452316798e-03
         - -1.3669899135655000e-01
         - -8.8485592841434466e-02
         - 3.9353030697545352e-02
         - 2.3821587248191339e-01
         - -2.8720195883869017e-02
         - 6.9072224301855209e-02
         - -6.5556669539771822e-02
         - 3.5724619987891185e-02
         - 1.5616301927531701e-01
         - -4.6180126931451172e-03
         - -1.5691099542634629e-01
         - -4.8066594852634183e-02
         - 3.3170757281088988e-02
         - 8.7200910397242259e-02
         - 8.0371772542763648e-02
         - 6.8346027811163196e-02
         - 5.3067231541893869e-02
         - -3.7839180621830684e-03
         - -9.5028322027387951e-02
         - -8.2189588534921448e-02
         - 4.3709155854086456e-03
         - -1.0552181147506437e-02
         - 1.0300117807001118e-01
         - -5.3589106835330809e-02
         - 2.3689432891536888e-01
         - 1.0331026582002735e-03
         - -3.4604152354278453e-02
         - -7.5622775377259713e-02
         - -2.0179370911440977e-02
         - -1.3342462701121632e-01
         - -1.0324477213777690e-01
         - -3.6434949696757660e-02
         - 4.2668759935941020e-01
         - 1.3886373761495535e-02
         - 2.0362471972217941e-01
         - 3.8888946241097040e-03
         - -1.0856677693547753e-01
         - -8.8121837526259197e-02
         - -1.3203369561970363e-01
         - -1.9352618774828436e-02
         - 3.7329486971784442e-01
         - 1.9869504766391065e-02
         - 5.6935299936791327e-02
         - -8.3437110905491760e-02
         - -5.6975008468453901e-02
         - -4.0795877281078257e-03
         - -1.9832890719101581e-01
         - -1.0139293996765802e-02
         - -1.2652870079869671e-01
         - -4.9116318242432538e-02
         - 7.9806348265148343e-03
         - -4.3253318461386019e-02
         - 1.6960373154586882e-02
         - 1.1040074130981567e-01
         - -1.0759700947267481e-01
         - 4.5550973658253301e-02
         - -2.6316030908916083e-01
         - -3.6668921899990999e-02
         - -3.0285332110832276e-02
         - 1.0142752569071421e-01
         - 7.8455399173733786e-02
         - 5.8571007887332126e-02
         - 1.2354732579673705e-01
         - 2.2225917978272020e-02
         - -1.7354395094310635e-01
         - -3.3042304000892808e-02
         - -2.8720096033003001e-01
         - 3.8128652794292749e-02
         - 1.5093043968749717e-01
         - 1.7752750535760978e-02
         - 2.3906195402835251e-01
         - -2.0351703686972127e-02
         - -1.6723256596807523e-01
         - -6.5018639193565167e-02
         - -2.1773294189202614e-02
         - 8.3654179646788143e-03
         - 5.5225585222728191e-02
         - 5.2142856570378524e-02
         - 2.3556329073492477e-01
         - -1.9866920809494624e-02
         - -1.0717662792659459e-01
         - 2.9423674332276030e-02
         - -4.1966060288333596e-03
         - -3.3998957697682471e-02
         - -1.8064176259699433e-02
         - -1.1352806066709875e-02
         - 1.8581730268203836e-01
         - -6.3996348981061046e-02
         - 4.3613599731433889e-02
         - 2.1995650791293664e-03
         - -1.1939103086282401e-02
         - 3.2618642696117195e-02
         - 6.9329209727681168e-02
         - -1.9858651563967405e-02
         - -6.4215088888043503e-02
         - 4.1787984097474883e-02
         - -3.8916047641842145e-03
         - 7.4113751378072279e-03
         - 5.4964564620072563e-02
         - 8.9672951073928586e-02
         - -1.0258475725126830e-01
         - -1.4058103677975020e-02
         - -1.3151572270040612e-01
         - 1.0278843606654656e-03
         - -1.6020116778113164e-01
         - 2.1547631855524427e-02
         - -1.7513602729878980e-01
         - 9.9530229669910850e-03
         - 4.3975359512493033e-02
         - 5.5940008011159927e-02
         - 1.2051264994170466e-01
         - 2.3333451174895825e-02
         - 6.0957171592601465e-02
         - -6.6812108740604420e-03
         - -1.3157962179654434e-01
         - -7.6838757625888515e-02
         - 1.0428141241900270e-01
         - 7.3738635196636024e-02
         - 5.6330574527260487e-02
         - 4.3446184267705558e-02
         - -1.1467593276991193e-01
         - -6.7857958515612563e-02
         - -1.9635636645275215e-01
         - -3.0122641774578646e-02
         - -1.1663733813121800e-01
         - 3.3320195705245671e-02
         - 1.8336766059917773e-02
         - 1.2075975260102588e-02
         - -1.1134915251713641e-01
         - -1.5352072043726477e-02
         - -1.6046350029807016e-01
         - 5.9499974723824373e-02
         - 1.4743670787756215e-02
         - 4.5070388985863921e-02
         - -1.1087386418551438e-01
         - 3.1743694513691446e-02
         - -4.1727317906529657e-02
         - 2.3644028324163298e-02
         - -9.3903179241924522e-03
         - 6.2946281578667135e-02
         - 3.6791816742984651e-02
         - 5.5516582021243488e-02
         - -4.2011637973062690e-02
         - 7.0124874346566127e-02
         - 4.0399293554411894e-02
         - 2.8639345129711079e-02
         - -7.7340102806546795e-02
         - -2.4662954590546651e-02
         - 1.0659562586150871e-01
         - 9.3240150316384843e-02
         - 1.8783137346217997e-02
         - -2.7927841472594944e-02
         - 2.0338985370933005e-03
         - 7.1120904574267618e-02
         - 9.0662247446151312e-02
         - 1.2458665443302604e-01
         - 1.4439927275253742e-01
         - -7.1483578080282537e-02
         - 6.2490975646318718e-02
         - -1.0621428416783632e-02
         - 1.8131882485071105e-01
         - -2.5177718496727730e-02
         - -4.4281119348852441e-02
         - -9.9352122975409199e-02
         - -8.5626720600188208e-02
         - -7.7264904127755427e-02
         - -2.5746219097150291e-01
         - 3.1921754685215521e-03
         - 2.1125065881601446e-01
         - -2.4564206984325845e-02
         - 3.2764483976430347e-01
         - 5.5517635382045571e-02
         - 4.6786726559486937e-02
         - 1.7199219051459758e-02
         - -1.4249846362779026e-01
         - -7.3249038516817831e-03
         - -1.6774510015357588e-01
         - -3.6190487464751064e-02
         - -1.0970257673087598e-01
         - -4.4238046018753939e-02
         - -5.2147406704101534e-02
         - 7.4503305406527595e-02
         - 8.9961436807371828e-02
         - -2.2841256074723430e-02
         - -2.2986116306173771e-01
         - -5.8323831559025617e-02
         - -1.7177463904634435e-01
         - -4.0839838308766953e-02
         - -6.1206155293930121e-02
         - 2.3945571825984099e-02
         - 1.7948279299305991e-01
         - -4.0408028377528465e-02
         - -2.9203322322808439e-01
         - -5.0909693626079416e-02
         - -2.2711499881765496e-01
         - 9.7758950262684247e-02
         - 1.1687156855509286e-01
         - 3.8034018639950908e-02
         - 6.5350993151174503e-03
         - 4.0832865446641949e-02
         - -3.3587748760129094e-01
         - -3.7452505975774125e-02
         - -8.8396495867102860e-03
         - 1.8274804854443708e-01
         - -7.8993624881660719e-03
         - -1.6178504526909748e-02
         - -4.0696580282889624e-02
         - -8.5680706026598275e-02
         - 5.2429080189026561e-02
         - 3.2437372547205183e-02
         - -5.7271909998155089e-02
         - 1.2951890609918887e-02
         - -2.7269116932018927e-02
         - -3.7037532891051141e-02
         - 3.4783475883505854e-03
         - -2.8832488700724107e-02
         - -5.3989878322900878e-02
         - -1.0411238140612025e-02
         - 1.5481922826465339e-01
         - 1.1221067409044473e-01
         - 4.9615857544643628e-02
         - 1.6099007168911366e-02
         - -4.3452067766052219e-02
         - -2.0537870407375265e-02
         - 3.4736429260818526e-02
         - 3.4705654465892084e-02
         - -1.7088978570470253e-01
         - -6.3203272605119487e-02
         - 5.2007231415909051e-02
         - 2.4038462214140681e-02
         - 2.6205389639332938e-03
         - -4.2690736823960143e-02
         - 4.5811807367400183e-02
         - 5.2473406661277734e-02
         - -3.8490107679562895e-02
         - 3.8218583919191439e-02
         - -7.4246745428259764e-02
         - 7.3812244415081385e-02
         - 1.4820982437541597e-01
         - -1.1229828385059612e-01
         - 2.2602266107803604e-01
         - 8.0647424301292556e-02
         - -3.1494156136857021e-01
         - -5.0301782245908762e-02
         - -1.1090049240267122e-01
         - -2.1709995762533945e-02
         - -1.7290182274122307e-01
         - -6.8501304635664659e-03
         - 2.3722208598554947e-02
         - -1.2632504633363897e-02
         - -1.6825879479905850e-01
         - 2.0321856885411511e-02
         - 2.5283295648848424e-02
         - -3.9756586667939992e-02
         - -1.9604388835429204e-01
         - 5.5219165124692667e-02
         - -3.1740612227118416e-02
         - -3.9328738941021027e-02
         - 3.1185704112418228e-01
         - 1.0884916676496453e-01
         - -5.4405735399431734e-02
         - -7.4931204517484085e-03
         - -1.1070128782222015e-01
         - 8.4638911466671393e-02
         - -1.5498423330087754e-01
         - 8.9608125015134907e-03
         - 8.6296369418042737e-02
         - 1.1343905734074108e-01
         - 2.9211337141849852e-02
         - 8.3857862264968330e-02
         - -5.8130721307551370e-02
         - 1.9549626089167563e-02
         - -1.6063210411362375e-01
         - 1.1773243781022708e-01
         - 8.1816735086193110e-02
         - 9.7021190198086429e-02
         - 5.4485575445632713e-02
         - 3.2359966933612483e-02
         - 1.7658629938558495e-01
         - -6.1216253751771759e-04
         - -4.9524792749834491e-02
         - 3.5598730828933979e-02
         - -2.7218172909647254e-01
         - -8.6958808685196939e-02
         - -6.3590229803356116e-02
         - -8.0288130644294908e-02
         - -9.7190003152215668e-02
         - -3.7116981255344003e-02
         - 2.1395987296850158e-01
         - 1.9278480780903912e-03
         - -4.0031398183851215e-02
         - -8.7523818108410215e-02
         - 1.0569835806839195e-01
         - 6.2820541691622586e-02
         - 4.8623523781119983e-02
         - 9.5924381471120979e-02
         - -2.1859157964205143e-02
         - -2.3128793160445828e-03
         - 1.9295695612013297e-01
         - 6.7737220542132909e-02
         - -8.1784157925692519e-02
         - 4.8230239516640896e-03
         - 3.9767359057014534e-02
         - -1.1326581894507927e-02
         - -5.1276518990143280e-02
         - -3.8468523109786400e-02
         - -1.6903522967109577e-01
         - -1.4977830722723584e-01
         - -1.0972281138734790e-02
         - 4.1211050100556895e-02
         - 9.0190624590368376e-03
         - 5.5473252284339983e-02
         - -8.6569549778320917e-02
         - -8.7125428328991186e-02
         - -8.4353698419129736e-02
         - -1.1578144717546848e-01
         - 6.7693086816443069e-03
         - -1.5017881039422379e-02
         - -6.9518907339601768e-02
         - 4.5522270943694140e-02
         - -2.1030157672859198e-01
         - -8.1240035051720075e-02
         - 3.2440225308636744e-02
         - 8.1513612025456608e-02
         - -2.4421961987823981e-02
         - -3.5303610511175844e-02
         - -7.2679552407364817e-02
         - -3.6986777269040053e-02
         - -2.2608994698245957e-01
         - -6.6605185752866031e-02
         - -1.2222581721869291e-01
         - 6.8723840834281846e-02
         - 1.4744274213386234e-02
         - -1.9239004036802811e-02
         - -4.2444213241658660e-02
         - -3.0246032460235581e-02
         - -1.1289603143877654e-01
         - -6.2837459155914266e-02
         - 2.9110807617401712e-02
         - 4.3451122457411472e-02
         - 3.2989770527916068e-03
         - -7.1095378139516316e-02
         - -3.7420895835122134e-02
         - -2.4272560816066942e-02
         - 5.5877298145940606e-02
         - -3.3045383584628649e-02
         - 1.5326753752842825e-01
         - -8.0020279263083680e-02
         - -1.8279688828576855e-02
         - -2.1807227702701062e-02
         - 5.3202149672193493e-02
         - -2.9840414285010487e-02
         - 1.8956842807969765e-01
         - -7.3686187612027734e-02
         - -6.5471896965553569e-02
         - -1.8863821874371932e-02
         - -8.6936864690921697e-02
         - -3.6402212284488925e-03
         - 5.8511735129991284e-02
         - -7.5296119266808459e-02
         - -9.0345441683815624e-03
         - -3.9884323254429831e-02
         - -2.3991730561624286e-01
         - -7.6354965258477556e-02
         - 1.2974092391783973e-01
         - 1.0093985520971169e-01
         - 5.6154970605937639e-02
         - 3.2424393109231196e-02
         - -3.1135333262871483e-02
         - 6.1056818994555263e-02
         - -1.2350107836677750e-01
         - 6.7466668116257317e-02
         - -7.4860203797347119e-02
         - 1.8613677032918965e-02
         - 1.2395641306133030e-01
         - -6.9170579278642119e-02
         - 2.6126233047566672e-01
         - 2.3672597728982576e-02
         - -1.4183327148654215e-01
         - -8.7062032511592974e-02
         - -9.0690033607816037e-02
         - -5.6101480413225706e-02
         - -1.2868482575644150e-01
         - 3.3555055436107997e-02
         - -1.3785895996705957e-01
         - 4.1255627393562465e-03
         - 3.6102391166157877e-02
         - 2.6656523652282455e-02
         - -1.8353827584151536e-01
         - -9.3679302353068303e-02
         - -1.9999647923875893e-01
         - -1.1550985741047021e-01
         - 1.0515792495570139e-01
         - -4.7423046768913540e-02
         - 2.1204186541964620e-01
         - 9.7843863020896746e-02
         - -4.7667763195414742e-02
         - 1.2041574731841439e-02
         - 2.0869042281239040e-02
         - -2.3839463598488212e-02
         - 8.1673119684397440e-04
         - 2.4250237401180026e-03
         - -1.4919582550742952e-01
         - -5.7887534813118348e-02
         - 5.7543051459227924e-02
         - 5.7940678620093930e-02
         - 1.0680457764879331e-01
         - -1.5986213855223468e-02
         - 3.3858219356235328e-02
         - -1.9550087201464370e-02
         - -1.3063508147008607e-01
         - -1.0944755303487493e-01
         - -8.0707975951906735e-02
         - -1.9718227919471705e-02
         - -6.9186879804130366e-02
         - -2.4055611517866549e-02
         - 1.2742031379090779e-01
         - 3.1797602852132643e-02
         - -1.8809680188882302e-01
         - -1.4100354646913170e-02
         - 1.5855903364142450e-02
         - 1.8086535528733585e-02
         - 4.3432400479032060e-02
         - -4.4474215297360384e-02
         - -6.9029180133896764e-02
         - -3.3121655554359405e-02
         - 1.3269773290750603e-01
         - 6.3726516943402395e-02
         - 8.5929524265045791e-03
         - -2.5131216889334998e-03
         - -1.8248535518310821e-01
         - -2.2745220242170641e-02
         - 1.0408497375392900e-01
         - -4.9534718658747635e-03
         - -1.0039533140122080e-01
         - -3.1037804850305450e-02
         - -2.2097741903011048e-02
         - 6.3965615511102636e-02
         - -1.2439650218797087e-01
         - 3.8257750273019149e-02
         - -2.9157446864371588e-02
         - -7.4270485205328090e-03
         - 1.4815903466699989e-01
         - 1.6463901682047466e-01
         - -7.7000050348631277e-02
         - -3.2926520807138572e-02
         - -1.4322637698883645e-01
         - 4.7640774428887492e-02
         - -3.2094800982487137e-01
         - -4.0776510471027101e-02
         - 4.7486783881996980e-02
         - 5.7172399676856729e-02
         - 4.9967980765247472e-02
         - -3.2408218627568183e-03
         - -1.0666134706316205e-01
         - 7.5100891419982038e-02
         - -2.8129067874236247e-01
         - -9.5082005398930872e-02
         - 7.4174977009678761e-03
         - 1.1644613189270780e-01
         - 9.2049600739792362e-02
         - 2.4524184138891231e-03
         - -7.2633181213163133e-03
         - -1.5448151189249738e-03
         - -2.1910584747721265e-01
         - -5.2871036910217571e-02
         - 7.3786333368171933e-02
         - 1.5153805938717516e-01
         - 1.6685958761322735e-02
         - 4.6061276828056899e-02
         - 1.3434333923268982e-01
         - 3.1328791974068813e-02
         - -2.3690200936862543e-01
         - -2.4912305429560782e-02
         - 1.7560813486980245e-01
         - 2.3498646906252366e-01
         - 1.6730882917800519e-01
         - -7.9739779151111856e-02
         - 5.9478217209008614e-03
         - -5.0460719845821043e-03
         - -1.2327086764768322e-01
         - -5.5321241970789616e-02
         - 2.4766930538214904e-01
         - 2.1780136276276427e-01
         - 3.6835630315305810e-02
         - 6.0382143722728168e-02
         - -6.8622464715647688e-02
         - 2.9910441044721712e-02
         - -1.0945436166324768e-01
         - -2.6578267286485373e-02
         - 9.5155993680390558e-02
         - 1.0114411980231912e-01
         - -3.3081917053537462e-02
         - -2.1160575632884281e-02
         - -3.6952768927099408e-02
         - 1.5806784826245718e-02
         - -1.3213359400751071e-01
         - 3.4177352377268308e-02
         - 3.6719865900866379e-02
         - 1.0070718362550087e-01
         - -9.6689794565997279e-03
         - -3.3794006172452692e-02
         - -3.7980890090182724e-03
         - -3.9270714188081916e-02
         - 3.5609146749287508e-02
         - 5.8253816029872384e-03
         - -4.1068778975026941e-02
         - 1.1720833311867521e-01
         - -2.6266070876336225e-02
         - -1.3226732629783682e-03
         - 1.7927285599469368e-02
         - 1.5691674176793319e-02
         - -2.0918822653950489e-01
         - -7.3293761653710054e-03
         - -5.4616478406738327e-02
         - -7.6782122207870063e-02
         - 5.4451187999997520e-02
         - -6.9831945677616743e-04
         - 2.4555942845241818e-01
         - -7.2031143065644149e-02
         - 1.1906634224240532e-02
         - -2.0320619674345154e-02
         - -1.7292674504165403e-01
         - -1.2246068755622772e-01
         - -6.0509366051571235e-02
         - 7.1587003798963794e-02
         - -1.8588626709286907e-02
         - -8.5329524309937718e-02
         - -2.8696388853512132e-02
         - 6.3484657188811119e-02
         - -1.3013200464282362e-01
         - 3.2839322743274113e-02
         - 8.5555701286333177e-03
         - 4.5322247920635751e-02
         - -7.9506098747869194e-02
         - -2.6872489485698682e-03
         - -1.2485013269219671e-01
         - 9.0386232311171627e-02
         - -2.0965059627993565e-01
         - -1.0839954563701562e-01
         - 4.2213061047210981e-02
         - 1.5619237634626167e-02
         - -1.8942702633037264e-02
         - 1.6779323570416567e-02
         - 4.4370995256787255e-02
         - -2.6034900813454638e-03
         - -1.6760833344562950e-01
         - -1.3788897406045678e-01
         - 1.9699560010716332e-02
         - 1.6520736048493294e-02
         - -2.0434699000960729e-01
         - -1.3045372983388320e-02
         - -1.1033209958647994e-01
         - -3.2636323682759628e-02
         - 1.3529212201563681e-01
         - 1.1391135566967817e-01
         - -1.0516328757630000e-01
         - -3.0547546167824735e-02
         - -1.8575072711468907e-01
         - -2.0590207506272790e-02
         - 1.1717741145269833e-01
         - 1.1224160821485048e-03
         - -2.5480378897897221e-01
         - -1.5853375620073479e-01
         - -1.3195645990286621e-02
         - 2.5689324534122621e-02
         - -5.2149523194708509e-02
         - 2.2307494205548797e-02
         - 1.4420352125042546e-01
         - -2.8478987612611591e-02
         - 1.2681182351072526e-01
         - -1.0697428966474437e-02
         - -1.1122489902495850e-01
         - -5.8153982102082107e-02
         - -2.1992644806926043e-01
         - 3.0156252409713716e-02
         - -5.1428578450729213e-02
         - -4.6567106944024883e-02
         - 2.2152686690057774e-01
         - 2.2586837660271233e-01
         - 2.8693681102100889e-02
         - -3.8198296608365143e-02
         - 3.0126039080089727e-02
         - 7.7991713648495928e-02
         - -1.3801093318698504e-01
         - -1.0731736147157471e-01
         - -1.6511078504506452e-02
         - 6.2045181556346321e-02
         - -8.1487833562236059e-02
         - -5.9887934091588671e-02
         - -3.3888084857920699e-02
         - -5.7926623454467446e-03
         - 1.0451340985438743e-02
         - -6.7858205254578280e-02
         - 1.1883217094059073e-02
         - 1.4379722773465592e-01
         - -7.1350080932670007e-02
         - -1.3506831679173856e-01
         - -2.2691765367272884e-01
         - 2.6196531287236917e-02
         - 4.0764846110080646e-02
         - -1.2388409635623170e-01
         - 2.2427692923968803e-01
         - 1.8724256059011157e-01
         - -7.7675238366600036e-02
         - -3.6941531712990548e-02
         - -2.8816641650621890e-02
         - -6.2227728668033258e-03
         - 5.8176588386136242e-02
         - -5.9690428104065364e-02
         - 6.2498449618225115e-02
         - -2.7258928067056046e-02
         - 1.0659204961768047e-01
         - 3.1253458617359472e-03
         - 9.6489536849702299e-03
         - 4.5005230454338359e-02
         - -1.0360684489072625e-01
         - -5.4766665610926003e-02
         - -4.9726328477204165e-02
         - -3.3470794801202644e-02
         - -1.2989174474743009e-01
         - -6.5530260881969490e-02
         - -2.0808938873755603e-01
         - -9.3325742530309813e-03
         - 5.2292820138226392e-02
         - -2.6181736285419734e-02
         - 6.9009645595652119e-02
         - -6.0607630268962612e-02
         - 1.5260476680522602e-02
         - -2.1637197082655862e-02
         - 8.6069638486874753e-02
         - -6.1291043316509718e-02
         - -2.4617826267418645e-02
         - 2.3953641875721514e-02
         - -1.4314903230822479e-01
         - -1.2395086515998240e-02
         - 1.1998039423296737e-01
         - 1.1292938401895161e-01
         - 2.1456037436211903e-01
         - 4.4780803784684665e-02
         - -1.2399775041334379e-02
         - 3.0379303695092157e-02
         - -1.7890197711872738e-01
         - -3.2800568661687686e-02
         - 1.2337789412928364e-01
         - 3.7382190593663836e-02
         - 1.3532039269833290e-01
         - 7.9423297666433215e-03
         - 6.2014118866264949e-02
         - 2.7501639480838953e-02
         - -1.6277037949775949e-01
         - -4.7097319263300304e-02
         - -1.2892190711197624e-01
         - -2.7373277672131550e-02
         - -3.1162721263765927e-02
         - -3.6756541971272219e-02
         - 5.0352806326036254e-02
         - -2.2428865446639162e-02
         - 8.7469216418633200e-02
         - 3.1111636301229616e-02
         - 1.4271043030015889e-04
         - 3.5213600303887608e-03
         - 5.2084059755383274e-03
         - -2.0728332846082512e-02
         - 5.8169890797867760e-02
         - 4.6735246712026043e-02
         - -2.0411294057584775e-01
         - -1.0490768571268884e-01
         - -5.0632398628927565e-02
         - -5.5788750088023899e-02
         - -1.7267078746813139e-01
         - -1.2954304562326931e-02
         - 5.8516272360122551e-02
         - 2.5494861078200662e-02
         - 2.4283603631455322e-01
         - 5.3517129411770371e-02
         - -1.4831138309503950e-01
         - -6.8596094570438013e-02
         - -2.4149627233364840e-01
         - -2.4672093399267812e-02
         - -2.3416284339936352e-02
         - -2.5277245988032909e-02
         - -8.5703022415262911e-02
         - 2.1457978384543234e-03
         - -2.7838782712195458e-02
         - -1.4006724613903728e-02
         - -1.4407909240577946e-01
         - 3.2990793304863701e-02
         - 1.9111868420652164e-01
         - 5.7551279793996359e-02
         - -4.6016161683594757e-02
         - 7.8129993811688031e-02
         - -6.2646929541281204e-02
         - -2.4539143371128815e-04
         - -9.2459432967478841e-02
         - 5.6617479395257769e-02
         - -5.9959203741489900e-02
         - 5.7427452614665052e-03
         - 4.0320264208067294e-02
         - 3.9123712519597481e-02
         - -7.6197692248644561e-02
         - -2.4244142820513816e-02
         - -1.2245989457335635e-01
         - 1.2792411711549270e-01
         - -1.4619577879865950e-01
         - -2.8292350264432022e-02
         - 1.5191532611711203e-02
         - 2.4195681769474786e-01
         - -4.6345994301672327e-02
         - -5.1966089357853296e-02
         - -1.0374139967987492e-01
         - 6.0971714822158712e-02
         - -1.8580939245227995e-01
         - -7.8774333219993650e-02
         - 4.5805723389144570e-02
         - 1.1135648113384382e-01
         - 5.9676779847275825e-02
         - -3.8669725836972722e-02
         - 4.9306997027354138e-02
         - 8.6545017594438639e-02
         - -4.6507464118013273e-03
         - -9.3475959834104283e-02
         - 1.5280955386365644e-01
         - 7.6686175425079994e-02
         - -6.8130016653095080e-02
         - -5.6423276113751605e-03
         - -6.9592290142557509e-02
         - 5.6756111088024155e-02
         - -1.2009693580739639e-01
         - -2.7338941656008427e-02
         - 4.2791828917758241e-02
         - 1.2052815968627385e-02
         - -3.3261081276738103e-02
         - -7.4771834315884231e-02
         - -1.5799910867762770e-01
         - 2.4873994384250163e-02
         - 9.4910706110676493e-02
         - -7.3238024017491868e-02
         - 3.2831726866638855e-01
         - 1.1005805401731637e-01
         - 1.7920773960842410e-02
         - 3.3108721664621571e-04
         - 1.3663643279064419e-01
         - 2.8259378357525781e-02
         - 1.8580795571637953e-02
         - -4.8035770230991044e-02
         - 2.5073955012830862e-01
         - 1.0471194396244547e-01
         - 2.0631516361988309e-01
         - 5.4910184663472056e-02
         - 2.5956555532103942e-01
         - 9.6118483611720373e-02
         - -2.1953039027117038e-01
         - 5.4630204615973834e-03
         - -3.0025592605621577e-02
         - 8.0126928845227291e-02
         - 5.0367946447698757e-02
         - 3.2719831217468562e-02
         - 1.3867717515868189e-01
         - -5.4922994260900637e-02
         - 5.5905638546710268e-02
         - 2.2925172823460790e-02
         - -1.2405626273753356e-01
         - 9.7925493915591025e-05
         - -1.6224280463078763e-02
         - 7.3390098276052973e-02
         - 4.7545374451045161e-02
         - -4.6254806966724515e-02
         - -7.7357812958813110e-02
         - 1.1050924385047135e-01
         - -1.4798778720345623e-01
         - -2.7064444065840125e-02
         - -2.7655013058504138e-02
         - 3.9848540850530210e-02
         - -3.2096232402072128e-02
         - 4.1909236474099089e-02
         - -1.4833748224216894e-01
         - 4.3136327557567182e-02
         - 1.9577146755702116e-01
         - 3.5701470567562801e-02
         - 2.0971968141315474e-02
         - 2.3811078054206878e-02
         - -2.0262209527538062e-02
         - 3.9274309986600075e-04
         - 1.9195122021106570e-02
         - 1.1397085953225498e-02
         - -4.4153864427944070e-02
         - -1.5358224476144662e-02
         - -3.1536052756261569e-02
         - -2.4081487088694811e-02
         - -1.4747698784490654e-01
         - 3.7695731207152715e-02
         - -5.2621055901794951e-02
         - -1.4847171317811297e-02
         - -7.0055491447864979e-02
         - -1.1376125301575805e-01
         - 2.7894306183278223e-02
         - -3.7416036970263571e-02
         - -3.7703115242035352e-02
         - -2.2747633165323588e-02
         - 3.0565668794919249e-02
         - 3.9855181382119544e-03
         - 9.1104905987589822e-03
         - 6.7449000906176157e-02
         - 6.2816142328450841e-02
         - -9.0521906513061270e-03
         - -2.9880901808386944e-03
         - 4.5018317372291922e-02
         - 8.9579301253944602e-02
         - -3.9870097739411602e-02
         - 2.2794336633405576e-01
         - 5.0018219792471418e-02
         - -9.4043049992598854e-02
         - -9.7899850101842404e-04
         - -1.5604580865087250e-01
         - -3.5616115493025062e-04
         - 1.6746607872359467e-01
         - 1.7873577046392100e-02
         - -1.3277119024486717e-01
         - -6.7301138894734061e-02
         - -1.3335628392866536e-01
         - -1.0931755002193540e-01
         - -1.1459607116632478e-01
         - -1.6240445816332265e-02
         - 1.7184308753359212e-01
         - -6.2464552437979416e-02
         - -1.1202485983960163e-01
         - -1.4835222671972212e-01
         - -1.8002061331688626e-01
         - -1.3039894926718776e-01
         - -2.2225713396337940e-01
         - 5.0305716607862747e-02
         - -2.0062721872061198e-01
         - -3.7409282318650122e-02
         - 1.1901365691228531e-01
         - 2.1890271655950250e-01
         - -7.8534422081865493e-02
         - -1.1709088986136429e-01
         - -1.9601231920348552e-01
         - 5.6237956520953231e-02
         - -1.0265409132348836e-01
         - -8.5325516423240252e-02
         - 3.1338905457970218e-01
         - 1.5671971498540890e-01
         - -1.1752658575807697e-01
         - -6.1247103045840627e-02
         - -3.0353418092686535e-01
         - 1.1341888334431388e-01
         - -5.6331557129071820e-02
         - -3.1458793453127423e-02
         - 2.8719024989067421e-01
         - 2.5148524961057722e-01
         - -2.5892917998200541e-02
         - -7.4180580088413647e-02
         - -1.0041642867037152e-01
         - 5.5382891900057588e-02
         - 1.5052392276484117e-01
         - -6.5304506788755531e-02
         - 2.3823431196212941e-01
         - 6.9482027935550680e-02
         - -5.7118622075565728e-02
         - -1.0758261903435468e-01
         - -2.7398296917722925e-01
         - 5.0283396934826953e-02
         - -1.7719059204439300e-01
         - 1.0981107413211188e-02
         - 2.2190018605336645e-01
         - 1.1082653542787883e-01
         - 1.3885056043206497e-02
         - -1.0069724000844194e-01
         - 1.1694822880264021e-01
         - 2.6956675706603987e-02
         - 1.2315144794982315e-01
         - -7.8045485079434554e-02
         - 2.6286511505908439e-01
         - -6.6958986980873950e-02
         - 5.3814323208523814e-02
         - -3.7603312333220090e-02
         - -8.7680383439941341e-03
         - 2.3767738650912393e-02
         - 3.6006264662032064e-02
         - -1.0032579494773521e-02
         - 2.6834393889587926e-01
         - 1.1055550867522103e-01
         - 6.6643885052416973e-02
         - -1.2918585850441661e-02
         - 8.6093149350505924e-02
         - 1.2001831137803972e-02
         - 1.3284266232494507e-01
         - -5.9112283293199216e-02
         - 2.1193628790123470e-01
         - -6.7243078352735408e-02
         - -4.5614467608574932e-02
         - -6.5269159687573339e-02
         - 7.5693826319641775e-04
         - -7.0556717267328704e-03
         - 1.8538208439074769e-01
         - -1.5315025102451016e-02
         - 1.9259403268922975e-01
         - 3.3647834765055930e-02
         - -4.2532796922745655e-02
         - -6.2678561128476737e-02
         - -7.2880660130386271e-02
         - 5.4263776598768083e-02
         - -4.8619913628819407e-02
         - -4.4787033245953164e-02
         - 3.2627514526011214e-01
         - 1.3973661532554379e-01
         - -4.8034514839238630e-02
         - 5.2834125701736928e-02
         - -1.9224414628698987e-02
         - 5.5585311683329537e-03
         - -3.2760222630638297e-02
         - 1.6280158057983756e-02
         - -1.7599592244553805e-01
         - -2.2616753045592916e-01
         - 5.7875948293328152e-03
         - -1.8663500652639848e-02
         - 1.6220937162293006e-01
         - -7.3040371735542745e-02
         - 1.1915163380857144e-01
         - -3.6844636885769409e-02
         - -6.8793139844709902e-02
         - -6.3852798931844632e-02
         - 8.8622685883504859e-02
         - 1.9852288893584612e-02
         - 1.6708804696689261e-01
         - 2.8806304844968288e-02
         - -2.1263687094564501e-01
         - -4.1760517178609513e-02
         - -1.3945581912666830e-01
         - -9.3368581337996609e-02
         - 3.3934599433300697e-02
         - -1.6723179691302874e-02
         - -1.2064045581305775e-02
         - -3.2014477262137415e-02
         - 1.2342056440665309e-02
         - -1.7915227834240828e-02
         - 5.6861233063163173e-02
         - 1.5231997975667806e-02
         - 2.3647739913883126e-01
         - 1.4780832434345381e-01
         - -6.7573186939800922e-01
         - -1.4100898674769630e-01
         - -4.4251783250337806e-01
         - 2.0715508850391234e-01
         - 1.0739500592580991e+00
         - 3.7747894257436243e-02
      -
         - -8.3440856632453231e-01
         - -3.9710040385994252e-02
         - 2.5528389123560347e-01
         - -1.0995960606335592e-01
         - 2.5728089047276642e-01
         - -1.5068092531325056e-01
         - 1.4830912400074314e-02
         - -5.9689481751491524e-01
         - -8.4197917669997979e-01
         - -4.3175409739773146e-01
         - -1.8341074669286642e-01
         - 1.4399865415314933e-01
         - -3.0080402711332205e-01
         - -6.8787111350858701e-02
         - -1.8846638518454934e-02
         - -7.5962621842536382e-02
         - 5.6201697751493185e-01
         - 7.5759360277685239e-01
         - 1.8701088685819436e-01
         - -2.2432982974921814e-01
         - 7.7983196084599722e-03
         - -8.9119766952844275e-03
         - 5.5607693930695770e-02
         - -1.3524859643513381e+00
         - -1.9739032229773279e-01
         - 5.1017430190874813e-01
         - 3.2066913596190727e-01
         - -1.6812467989548724e-01
         - 3.4997976862897756e-01
         - -1.4595177396505613e-01
         - 6.4782238372843637e-02
         - -4.4751346233799355e-01
         - 1.4121690506760585e+00
         - 1.5650997069364433e-01
         - -1.4894325965510882e-01
         - -3.5492397963894218e-01
         - -1.4196575722998449e-02
         - -1.7185910893162262e-01
         - -1.9482232137104519e-01
         - -4.2668975601710540e-01
         - -6.5471462839107475e-01
         - -4.2021293020839334e-01
         - 2.0857657747977401e-01
         - 1.0626822446568825e-01
         - -5.0360875188065479e-02
         - 2.1210347191111253e-01
         - 2.8389521668615325e-01
         - 5.0890017080432837e-01
         - -5.2622983712108140e-01
         - -1.2616987383214562e+00
         - -4.5982970538050699e-01
         - -2.4254675349613239e-01
         - -1.9662059729366171e-01
         - -3.7664783431230681e-01
         - -6.0878479319955348e-01
         - 4.2254629432793561e-01
         - -5.2077053667158257e-01
         - -2.5954740442891616e-01
         - 1.8547484108296594e-01
         - 1.7714361117459343e-01
         - -1.8799775686061004e-01
         - 1.2945356555011592e-01
         - -1.0422842068436790e-01
         - 4.4405100680119597e-01
         - -4.3191897991492290e-01
         - 1.7526538405333889e-02
         - -2.6718475656637020e-01
         - 2.5994332695562633e-01
         - -5.5002113462207375e-02
         - 3.8580384201469413e-02
         - -5.8107611962687669e-02
         - 1.7065686936394739e-01
      -
         - 2.9633480575579829e-01
         - -1.2008703087721015e-01
         - -3.3046656407134761e-01
         - 4.7978024748344242e-02
         - 3.0506530256723902e-01
         - -6.4194062463548054e-03
         - 3.4877443589160817e-01
         - -8.8605335293605170e-01
         - 4.1138853193931446e-01
         - 4.1833935003848594e-01
         - -3.7837482850239784e-01
         - -1.1928147399784660e-01
         - 6.1614685526692525e-01
         - 4.9776211101356757e-02
         - -2.9908145993428109e-01
         - 1.5539028293004911e-01
         - 1.5835300958815074e-01
         - 9.5437583917563309e-02
         - -2.7784418887776868e-01
         - -3.9112798958563255e-01
         - 1.2024844601493408e-01
         - 1.6807597893859449e-01
         - -3.5265326778993317e-01
         - 4.4415677302623296e-01
         - -3.0085295321809851e-02
         - 6.4966129783934609e-02
         - -5.4966912503859255e-01
         - 2.1644391200295607e-03
         - -1.8144220158481014e-01
         - -4.3028590973040307e-02
         - 1.5183924233914209e-01
         - -5.8091068765002358e-03
         - -7.9115734181127613e-03
         - 2.3956547288838775e-01
         - -2.7364944054512143e-02
         - -8.9447854602019317e-02
         - 1.9078672337513536e-01
         - -1.6522658499587065e-01
         - -4.0171750901477477e-01
         - 2.6243384679788084e-01
         - 2.4363629662507916e-01
         - -1.8475418779908630e-03
         - -3.6529735338060926e-01
         - 1.0107974446326093e-01
         - 5.5025176119456141e-02
         - -7.7482455150904947e-02
         - 1.3206745955154839e-01
         - 2.5693387892495273e-01
         - 2.5584577507747824e-02
         - 2.2240324745758294e-01
         - -4.1964840357491606e-01
         - -1.1229969283209212e-01
         - -1.0324317273619234e-01
         - 2.5649358069710593e-01
         - 1.0857150599318832e-01
         - 5.8414746977692444e-01
         - 4.2418771062783411e-02
         - -1.8050129030199216e-01
         - -3.5141801408605744e-01
         - 2.1091337053483419e-01
         - -5.2193827734185172e-01
         - 1.3357611093840796e-01
         - 6.9068119398028738e-01
         - 1.4859938860187683e-01
         - -4.7541195486069843e-01
         - -2.4088260238807325e-02
         - -3.4118213286939764e-01
         - 1.9027219866093442e-01
         - 1.8666685137377173e-01
         - -4.0017930743926927e-01
         - -5.2550413592645462e-01
         - -4.0519235691345601e-01
      -
         - -6.6170128600127687e-01
         - 8.9068729038701966e-01
         - 1.1582875038676133e+00
         - -6.9038197127583634e-01
         - -7.1326572772067776e-02
         - -1.3636369503377191e-01
         - -5.3410123195976034e-01
         - -1.8045372999341039e-01
         - -2.5823638240465541e-01
         - -1.0369665350078632e+00
         - 1.0561219382558156e+00
         - 8.7223022812407514e-01
         - -4.4547578129470622e-01
         - -3.1380148556974313e-01
         - 5.2356274494972835e-02
         - -7.5837169638408009e-01
         - -2.6906302570649748e-01
         - -4.4323236492485146e-01
         - -3.2312250190870895e-01
         - -4.1170472184352669e-01
         - -1.4907356300322339e-01
         - -2.4613968685023543e-01
         - -4.8653993150443986e-01
         - -5.7935569294038536e-01
         - 3.0837373838833837e-01
         - -8.5752930202768118e-01
         - -4.3658134440146087e-02
         - 7.4453818693920371e-02
         - -1.6638738524047975e-01
         - 6.7960144378479348e-01
         - 5.7794800594227980e-01
         - 8.6633107562734724e-01
         - 3.2975574988233358e-01
         - 3.1050272448132743e-01
         - 8.9067986123084941e-01
         - -1.7535721577238247e-02
         - -6.6958579281261899e-01
         - 1.9567302567680681e-01
         - -1.7506862992327743e-01
         - 4.5138549340017436e-01
         - -4.2334431162982000e-01
         - -1.5419864507947481e-01
         - -5.6875567284455320e-01
         - -5.1965909483839479e-01
         - 1.4853524829439044e-01
         - -3.2117576107120405e-01
         - -3.4672802028068717e-01
         - 6.7221888439091138e-01
         - 6.4821510975893348e-01
         - 7.2404613854810551e-01
         - -5.3189675023637606e-01
         - 3.0697563613073453e-01
         - 1.4567026380838735e+00
         - 1.1943813681548941e-01
         - -1.2865576166869501e+00
         - -1.6230955618267071e-01
         - -1.5146289105477845e-01
         - 1.7078796951602870e-01
         - 8.4073063046511479e-03
         - -8.2823339174556393e-02
         - 4.8826999857143422e-01
         - -3.4286624344893701e-01
         - 4.2719994320842036e-01
         - 7.7096224411072001e-01
         - -1.0094140680979020e-01
         - -1.1796005923197075e-01
         - 8.8547118877546335e-02
         - -8.7439626071018448e-02
         - 2.0623341456037406e-01
         - 1.2200869598679183e-01
         - -7.9132529951765659e-02
         - -7.9300158118055644e-02
         - -1.5135985519079301e-01
         - 7.3835718409516735e-02
         - 1.8794899336834897e-01
         - 2.7164284664313892e-02
         - 1.8151008471070482e+00
         - -2.2719885283546284e-01
         - 3.1162664845573712e-01
         - -1.0602872583352903e+00
         - -3.1639591651861815e-01
         - 7.6254331413207244e-01
         - -7.5528226707577117e-01
         - -5.5934715719582950e-01
         - -1.0039003034727134e+00
         - 1.6495883279188853e-01
         - 2.7453336364735337e-01
         - 3.0992071842648317e-01
         - 5.5425039734416071e-01
         - -8.8158983826054271e-01
         - 5.8256348895483234e-01
         - 3.5277928611273596e-01
         - -6.4834324080103967e-01
         - -3.8348399239184283e-01
         - -5.6559078829941223e-01
         - 7.6305526384670164e-01
         - 2.5696732598005539e-01
         - -2.9173177992780036e-01
         - -7.8978701037310028e-01
         - -2.6038075132169336e-01
         - -7.8585729308042407e-01
         - -9.2653607650063674e-01
         - -6.4863211236137863e-01
         - 1.5179691481377139e-01
         - -1.3599612549461768e+00
         - 8.9808550949958588e-01
         - 8.2683884087820614e-01
         - 9.5363594466602045e-02
         - -7.2100299024640846e-01
         - -5.4992712140213951e-01
         - 1.2759862221688814e-01
         - -1.4664068952447706e-01
         - 3.3987318981698145e-01
         - 4.8071714396674620e-01
         - 1.5795747688676084e-01
         - 8.0608121593342241e-02
         - 5.1890052737829817e-01
         - -2.6231633546351246e-01
         - 2.5935768141112919e-01
         - 6.3375740695317817e-01
         - 7.4699170216102262e-01
         - 1.1405659702547761e+00
         - 3.1400962811363890e-02
         - 4.9080605810894773e-01
         - -1.3300310590340900e-01
         - -3.3067672668396536e-01
         - 4.9035836701832314e-02
         - -2.1864610668300022e-01
         - 9.4222738490460989e-01
         - 5.2292679547000043e-01
         - 6.5513195239086786e-01
         - 1.0746789980220250e-01
         - 7.5990593642083193e-01
         - 2.3956765532678384e-01
         - -8.8898900372871875e-02
         - 8.5531161935032052e-01
         - -4.8557184235213541e-01
         - 1.2872843622218641e-01
         - 3.5475852692486864e-01
         - 3.3190970773294315e-01
         - 3.5625483839396382e-01
         - -6.0344575503628128e-01
         - 8.1803676674739728e-02
         - 7.6272066389549364e-01
         - -3.0030356569859445e-01
         - -2.5786627038329529e-01
         - 1.3640471384532712e-01
         - -1.7375063533817025e-02
         - 5.3569650000760283e-01
         - -3.8641587410100592e-01
         - 3.3002595700923726e-01
         - 6.4060189454674821e-01
         - 1.2718983469981276e-01
         - 2.7188973720744769e-01
         - -4.9137803118842505e-01
         - -9.9536597459171883e-01
         - 1.3070581818660563e+00
         - -5.3244276213428521e-01
         - 1.9654685830060634e+00
         - -8.2243964225470700e-02
         - -1.5888232149404313e-01
         - 4.4339633195237926e-02
         - 6.1871773613962888e-01
         - -1.2421848762836345e-01
         - 6.4398854800740668e-01
         - 5.1401341384883607e-02
         - -1.2819322331693919e-01
         - 8.7307824604950057e-01
         - 7.6181786236987195e-02
         - -3.2118415138032519e-01
         - 3.6742109106527543e-01
